2708 128
a35 -0.248781 -0.058222 0.081485 0.211172 0.643053 0.167262 -0.149177 -0.210862 0.230418 -0.158708 -0.392334 0.305118 0.438903 -0.147000 0.029968 0.197969 -0.113508 -0.246049 0.385528 -0.071840 0.168054 -0.177069 -0.286165 0.296041 -0.020437 0.079217 0.345546 0.166288 0.159604 0.396863 0.386337 -0.326229 0.038961 0.244012 0.084002 -0.526181 0.305718 0.192463 -0.027165 -0.038859 -0.078120 -0.599039 -0.064501 -0.031591 -0.167436 -0.078978 -0.024189 0.124049 0.191901 -0.787274 -0.434990 0.198094 -0.072803 0.136428 -0.457750 0.284499 -0.008989 -0.152145 -0.134679 0.369910 0.228130 0.344780 -0.029065 -0.272799 0.128667 -0.025906 0.097941 0.257556 0.151118 0.015869 0.067569 0.123028 0.053454 0.180434 -0.061575 -0.228007 -0.329873 0.103962 -0.220804 0.086741 0.054534 0.163448 0.342863 -0.031502 0.123177 0.214403 -0.316485 -0.129399 -0.208971 0.291958 0.089907 0.482416 0.324188 0.317220 -0.334304 -0.084177 0.030491 0.276942 0.423786 -0.212292 -0.211962 -0.065090 -0.172167 -0.385630 0.028781 -0.372330 0.119610 0.084756 -0.050659 0.289788 -0.328600 0.070902 0.078851 -0.410839 -0.066204 -0.139438 0.381259 -0.344149 -0.087887 -0.483898 0.069405 -0.103752 -0.234114 -0.321030 0.107068 -0.207472 0.495711 -0.189449
a1365 -0.293448 -0.039837 -0.475516 -0.200428 0.027514 0.100973 -0.269167 0.320112 0.148983 0.280659 -0.262327 -0.111927 0.404077 -0.174050 0.324497 -0.202065 -0.194409 0.130037 0.394925 -0.091866 0.008130 -0.480529 -0.527457 0.227144 -0.338651 -0.301950 -0.138149 0.189881 0.374148 -0.083970 0.078292 0.385076 -0.361205 0.344564 -0.170878 0.029688 -0.241535 -0.123733 -0.143115 -0.222695 0.178076 -0.242443 0.303597 0.434761 -0.119784 -0.346273 -0.066547 -0.146723 0.062683 0.109851 -0.183607 0.035170 -0.107760 0.058236 -0.366070 0.236120 -0.111061 -0.058988 0.031355 0.163591 -0.112191 0.222135 0.071531 0.223344 0.474513 0.215981 -0.057192 0.251038 0.474779 0.197139 -0.062070 0.152566 0.452393 0.267507 0.134811 0.159024 -0.625813 -0.265954 0.024952 0.247909 -0.248314 -0.008888 0.110879 0.093630 0.324901 0.081624 -0.438483 0.178065 -0.427695 0.126571 0.587767 -0.429581 -0.163775 0.421100 -0.114296 -0.057532 -0.419307 0.139040 0.288379 0.315920 -0.040454 0.185273 -0.328971 -0.174339 -0.464024 0.305346 -0.342646 0.100619 0.072286 -0.268357 -0.048490 -0.380203 0.006298 -0.203634 -0.185984 -0.550929 -0.037601 -0.381175 0.223223 -0.071806 -0.271471 0.270350 -0.499775 0.152135 -0.134414 -0.044384 0.393064 -0.376896
a6213 0.079427 0.190268 -0.774456 0.351228 0.356569 0.184091 -0.231300 0.323500 -0.097622 -0.150180 -0.114921 0.724580 0.003150 -0.360296 0.091115 -0.034333 0.196490 0.226469 0.043343 -0.182923 0.474077 -0.278901 -0.185918 0.345508 -0.298223 -0.145896 0.078594 0.008666 0.100683 0.106195 0.192315 0.102041 -0.010938 0.005809 0.334492 0.001637 -0.064849 0.051211 0.148728 -0.000294 0.365962 -0.031786 0.331669 -0.086881 0.191395 -0.516759 -0.266278 -0.321961 0.123833 -0.249062 -0.250721 -0.085186 0.237618 0.167914 -0.246281 0.082297 0.211123 0.036487 0.116794 -0.265432 0.272976 0.158588 0.301293 0.260772 -0.304408 0.353049 0.329955 -0.121678 0.066670 0.354925 -0.046069 0.115475 0.256245 0.146975 -0.039808 0.342451 -0.080028 -0.194542 -0.121174 0.133407 -0.647555 0.174570 0.116901 0.005590 -0.169614 0.351541 -0.755698 0.008014 -0.266800 -0.112278 0.115167 0.134676 -0.194503 0.053489 -0.043536 0.088245 0.280866 0.282420 0.574614 0.321336 -0.057078 0.114116 -0.375897 0.095293 -0.182667 0.181035 -0.089649 0.336849 -0.169937 0.304803 -0.378763 -0.149507 0.399748 -0.304140 0.090351 -0.113449 0.076981 -0.050846 0.707166 -0.093152 -0.234469 0.169001 -0.544918 -0.237686 0.075566 -0.363667 0.554134 -0.288854
a3229 -0.164681 0.621605 -0.495162 0.085400 0.285830 -0.140082 -0.182219 0.194458 0.122828 -0.014391 -0.220109 0.489146 0.231940 -0.272722 0.384496 0.146441 0.195237 0.118899 -0.163985 0.017685 -0.049624 -0.062961 -0.724608 0.151416 -0.001222 -0.148898 0.377937 0.467235 0.118029 -0.114735 0.393399 0.010705 -0.299555 0.408079 0.209459 -0.156153 0.104456 0.184663 0.275439 -0.117951 0.614382 0.096106 0.036895 0.218569 -0.306015 -0.025960 -0.141733 -0.260592 0.071671 -0.192721 0.121554 -0.245390 -0.075199 0.463134 -0.224355 0.156609 0.164091 0.174707 -0.212996 0.039086 -0.269678 0.090943 0.254751 0.256407 0.199719 0.052805 -0.151587 0.151240 0.757218 0.025838 0.408456 -0.122134 0.324213 0.100788 0.346088 -0.239298 -0.403558 0.118233 0.212120 -0.386668 0.124499 -0.172444 0.353866 0.127963 -0.125476 0.155354 -0.260693 -0.038156 -0.057267 -0.181129 0.092629 -0.047999 0.207915 0.632470 -0.129615 -0.011385 -0.265872 -0.077741 -0.167856 -0.123286 -0.344506 0.250545 -0.515343 -0.224890 -0.482738 0.092627 -0.321093 0.277169 0.202014 -0.083749 0.281872 -0.178817 -0.171884 -0.010154 -0.372371 -0.372694 0.410104 -0.198414 0.085994 -0.152319 -0.020512 -0.089344 -0.219016 0.340473 -0.169857 0.129336 0.132616 -0.439257
a910 0.125484 -0.297722 0.212823 0.185909 0.239863 0.160267 -0.096943 0.278950 0.157001 0.146104 -0.525409 0.471673 -0.039255 -0.389607 -0.182687 -0.069639 0.105340 0.231634 0.083136 -0.156793 0.031121 -0.000490 -0.497145 0.559659 -0.308954 0.036479 -0.322967 0.321520 0.066443 -0.137154 -0.028359 0.297950 -0.457594 0.094383 -0.000785 -0.532717 -0.242812 -0.250966 0.234292 0.075717 0.231170 0.098028 0.053367 0.308697 -0.169768 -0.361835 0.135805 -0.118967 0.169845 -0.394238 -0.077186 -0.098225 -0.267383 0.321917 -0.210913 -0.563666 0.056897 -0.215191 0.220359 -0.193829 -0.218336 0.402849 0.280463 0.679601 0.388104 0.313832 -0.157168 0.319017 0.186686 0.312109 -0.065739 -0.501421 0.686642 0.433093 0.617159 -0.069096 -0.144334 -0.138106 0.080513 0.037557 0.062236 -0.096261 -0.304159 -0.085416 -0.106571 0.094135 -0.305991 -0.078401 -0.286547 -0.123107 0.201946 -0.107230 0.411356 0.165491 -0.134748 -0.058511 -0.428205 0.066419 0.094488 0.344826 -0.016586 0.419241 -0.202539 0.153150 -0.191300 0.003250 -0.089361 0.296578 -0.313347 0.015873 -0.191920 -0.109609 -0.487752 -0.402352 -0.133782 -0.508278 0.070382 -0.206161 0.506208 0.257975 -0.536700 0.738639 -0.175960 -0.270851 -0.293100 -0.348603 0.037731 -0.268831
a4330 -0.065849 0.592582 -0.067861 -0.004845 -0.009664 0.134807 -0.283952 -0.017372 0.261163 -0.526996 -0.117910 0.294013 0.239690 0.055867 0.280929 -0.056269 0.015801 0.147112 0.112755 0.296293 -0.540721 0.105513 -0.499742 0.708912 -0.527854 -0.056592 0.136666 -0.203134 0.022770 0.304908 0.251046 0.383436 -0.052142 0.218702 0.042069 -0.133882 -0.023777 0.183781 0.176954 0.616142 0.216155 0.335271 -0.201069 -0.076593 0.064267 -0.792151 -0.374933 -0.154611 -0.365972 -0.040374 -0.167717 0.183111 -0.178267 0.535801 -0.539728 -0.328211 -0.112603 -0.182365 0.200807 -0.144724 0.200752 0.535978 -0.274880 -0.045436 -0.081513 0.449812 -0.179508 0.107841 0.068330 0.338020 0.003699 -0.533052 0.572107 -0.036482 0.064742 0.493912 -0.480618 -0.014159 -0.368784 0.231934 -0.092904 -0.095090 0.295388 0.074238 0.006034 0.272884 -0.458495 -0.131418 -0.279541 -0.081496 -0.089555 0.358521 -0.100912 0.225218 -0.529436 -0.483775 -0.008432 -0.262326 -0.177217 0.115862 0.117690 0.279548 -0.223961 0.050424 -0.493531 -0.033127 -0.192665 0.237482 -0.142666 0.062550 0.033239 -0.177495 -0.124268 -0.344371 -0.121259 -0.627971 -0.135057 -0.033635 0.241470 0.232679 0.108869 0.028307 -0.324932 0.023054 0.123699 -0.244408 -0.226996 -0.249489
a114 0.148900 0.127942 -0.644913 0.464046 0.257238 0.253184 -0.375897 0.482221 0.029801 -0.157762 -0.152639 0.885770 0.211588 -0.137798 0.440173 -0.180867 0.183852 0.191888 0.358621 -0.011330 0.346157 0.181683 0.099420 0.443763 -0.511661 -0.334023 0.043381 -0.174227 0.131045 -0.263531 0.110341 -0.111902 0.370884 0.096918 0.080817 0.041713 -0.299050 0.238887 0.174099 -0.183703 0.652268 -0.189949 0.102940 0.259441 -0.223945 -0.166748 -0.098036 -0.151051 0.158673 -0.405267 -0.206749 -0.046019 0.078593 0.238219 0.117980 0.085658 0.244912 -0.121324 0.299664 -0.637863 0.409656 0.205363 -0.110758 0.227286 0.103254 0.430180 0.545956 0.110151 0.226972 0.370349 0.169968 0.337281 0.248986 0.115740 0.018214 -0.255853 -0.209644 -0.085438 -0.420629 -0.044921 -0.179136 0.065321 -0.123976 -0.011819 -0.236371 -0.031137 -0.839137 -0.232692 -0.272467 0.349332 0.075017 0.062046 0.103983 0.160060 -0.282034 0.119808 0.281387 -0.379194 0.442306 0.213155 -0.227867 0.119681 -0.124566 0.102562 -0.156308 0.261365 0.214428 0.453769 0.072133 0.535944 -0.171905 -0.379311 0.005740 -0.266904 0.414489 -0.146673 -0.132595 0.136774 0.536805 -0.156467 -0.032970 0.605824 -0.291317 -0.189204 -0.049656 -0.206132 0.542145 -0.544104
a3231 -0.019955 -0.026261 0.041567 0.163383 0.604633 0.204002 0.427748 -0.118151 0.361960 0.270116 0.078016 0.304749 0.471421 -0.191616 0.659297 0.471430 -0.360023 -0.279718 0.182039 -0.168075 0.060978 0.051148 0.386823 0.510246 0.041080 -0.366849 0.365047 0.339460 0.207552 0.071929 0.489611 0.312426 -0.226172 0.070755 0.293009 -0.377377 0.174173 0.011074 0.253379 0.267340 0.207359 -0.117812 0.217855 0.673693 -0.083223 -0.122207 -0.346833 -0.007559 0.045334 -0.168902 -0.104116 -0.401798 0.249006 0.405047 -0.155572 0.034701 -0.061537 0.247710 -0.235600 -0.130301 0.507458 0.072683 0.116818 0.063442 -0.467834 -0.092159 0.524250 0.345753 0.229215 0.494440 -0.291610 -0.420986 0.182954 -0.075347 -0.130717 -0.192313 -0.311567 0.063847 -0.168173 0.412226 0.413208 -0.557987 0.189070 0.316460 -0.074302 0.230322 -0.375530 -0.182962 -0.059251 0.219642 0.242724 0.041417 -0.053399 0.496244 -0.482521 0.228730 -0.036310 0.007992 0.092268 0.073563 0.102922 0.261560 0.127833 -0.222696 -0.019170 -0.418574 -0.675290 -0.134096 0.225652 0.084240 -0.501633 0.005209 -0.750764 0.033006 0.094315 -0.037921 -0.066346 0.225522 -0.203204 -0.068784 0.016879 0.163589 -0.202325 -0.373620 -0.028657 -0.423988 -0.077117 -0.103516
a1272 -0.150611 -0.074639 -0.368626 0.117438 0.315557 0.074310 0.559317 -0.132669 0.176289 0.292407 -0.001478 0.132850 0.200655 0.093405 0.177230 0.343480 0.125492 0.191487 0.591304 -0.204223 0.145563 -0.186545 -0.435358 0.170885 -0.317343 -0.215838 0.112045 0.173278 0.180989 0.049054 0.391512 0.593417 0.002435 0.319916 -0.352385 0.014142 0.320542 -0.153567 -0.014680 0.000334 0.090199 -0.205782 -0.009324 0.358778 -0.176836 0.208855 -0.465649 0.182467 0.232316 0.144834 -0.421636 -0.070986 0.176642 -0.368276 -0.244793 0.287582 -0.464695 0.319748 -0.398604 0.203654 -0.283760 0.012126 -0.409940 0.197199 -0.253057 0.184093 0.380849 0.104311 -0.077592 -0.136137 0.037599 -0.129824 -0.099899 -0.122753 0.189844 -0.178790 -0.030270 0.044806 -0.323438 -0.224059 -0.730700 -0.111952 0.084574 0.379252 0.003624 -0.035698 -0.645830 0.110005 0.282122 -0.087812 0.050245 -0.005082 -0.148242 0.453923 -0.675205 -0.293844 0.020367 0.333148 0.400638 -0.573982 -0.268405 0.124105 0.262824 0.163056 -0.137367 -0.008516 -0.351329 0.414164 0.180055 -0.212755 -0.239374 -0.304202 -0.244262 -0.351303 0.323899 -0.500597 0.369241 0.231823 -0.098343 0.335065 0.048238 0.471159 -0.404730 -0.718466 -0.048469 -0.338777 0.227009 -0.319895
a19621 -0.210585 0.239790 0.197628 -0.275935 0.341448 0.016789 -0.084162 0.705980 0.340665 0.145176 -0.121184 0.527131 0.262686 -0.110587 -0.382607 0.061523 -0.217216 -0.021292 0.270747 0.460680 0.078778 -0.537911 -0.734093 -0.036772 -0.154910 -0.082888 -0.111905 -0.012972 0.503248 0.265136 -0.001208 -0.170887 0.094357 0.518199 -0.084532 0.042582 -0.165151 -0.200313 -0.087375 -0.012527 0.230937 -0.093987 -0.281308 0.208774 -0.190568 -0.294151 -0.319062 -0.126268 0.227454 -0.093741 0.087696 -0.318614 0.039156 0.516425 -0.075991 0.273714 0.152472 -0.121230 -0.016267 0.252284 -0.366971 0.008290 0.515197 0.308469 0.585762 0.302439 -0.153348 0.202602 0.372942 0.252221 0.178664 -0.158410 0.660473 0.281205 0.269509 -0.241755 -0.708581 -0.589377 -0.022659 -0.121470 0.179756 -0.030854 0.303574 0.206379 0.165431 0.351580 -0.613041 0.117875 -0.295208 0.079485 0.268847 -0.004876 0.047787 0.665596 -0.146099 -0.329112 -0.337552 0.122272 -0.105939 0.126521 -0.255062 0.445907 0.013205 -0.580404 -0.188522 0.034940 -0.161775 0.077863 0.135601 0.493212 0.110230 -0.017132 -0.170244 -0.120427 -0.310712 -0.381499 -0.175943 0.193551 0.347584 0.165751 -0.375077 0.368143 -0.488395 -0.311456 0.259805 0.101767 0.302357 -0.001234
a6214 -0.438032 0.151252 -0.965321 0.175598 0.116802 0.311661 -0.115851 0.604956 -0.196100 -0.054376 -0.243009 0.475475 0.149014 -0.154495 0.064860 0.140341 0.267262 0.403032 -0.172785 0.077917 0.443337 -0.357739 -0.172979 0.441234 -0.390756 -0.410001 -0.040802 0.312484 -0.395062 0.333970 0.248283 0.101953 -0.035378 0.243702 0.391817 -0.047193 -0.136176 0.154746 -0.211977 0.183181 0.400162 -0.131232 0.033453 0.118912 0.056380 -0.149979 -0.274106 -0.202852 0.054621 -0.240175 -0.620439 -0.215220 0.154969 0.225442 -0.267311 0.122741 -0.233733 0.034843 -0.177462 -0.290713 0.306693 0.107897 0.225834 0.125096 0.141189 0.443974 -0.083530 0.036107 0.102020 0.261244 -0.104682 0.254987 0.024397 -0.127849 0.239080 -0.042199 -0.471980 -0.147172 -0.336842 0.130110 -0.253658 -0.152459 -0.104322 0.241144 -0.269720 -0.115875 -0.736860 -0.067405 -0.047327 0.150518 -0.201960 -0.109235 -0.185875 -0.257478 -0.146577 0.195909 0.447018 -0.146451 0.419618 0.011606 -0.424254 0.019262 0.099141 -0.595998 0.050733 0.246790 0.240287 0.084142 -0.205004 0.198284 -0.233483 -0.348305 0.157172 0.348403 0.235526 -0.368471 0.098628 0.000528 0.321485 -0.007143 -0.176176 0.553642 -0.404190 0.039319 0.074967 -0.045662 0.467533 -0.404040
a4584 -0.059998 0.221321 -0.578822 0.285005 0.529641 0.354959 -0.022940 0.212760 0.005315 -0.169173 -0.254105 0.356598 0.083051 -0.223873 0.114479 0.017123 0.482117 0.046335 0.502073 -0.034290 0.388760 0.177930 -0.592338 0.156575 -0.310361 -0.374774 -0.326375 -0.257150 0.278543 0.206285 0.293189 0.147138 0.343892 0.200075 0.302434 0.075099 -0.050008 -0.221610 0.143966 -0.109828 0.493730 -0.380042 0.099819 0.333632 -0.186494 -0.270239 -0.476734 -0.018647 0.084344 -0.207080 -0.403831 -0.211152 -0.448459 0.297223 -0.220867 0.106908 -0.139293 0.250518 0.136836 -0.079530 -0.034675 0.125207 0.091828 0.278672 0.222246 0.308795 -0.080263 0.230817 0.251841 0.270418 -0.175172 0.007420 -0.073690 -0.206231 0.122235 -0.195315 -0.320069 -0.104004 -0.173864 -0.149165 -0.349955 0.421610 -0.023038 0.054861 0.176580 0.308313 -0.734918 -0.033925 -0.144458 0.027851 -0.160161 -0.078367 -0.234685 0.206518 -0.311413 0.370780 0.190616 -0.034351 0.508292 0.229902 -0.304845 0.031245 0.037220 -0.006416 -0.271580 -0.005502 -0.171416 -0.009861 0.190645 -0.116368 -0.367544 -0.326988 0.206097 -0.234200 0.387960 -0.211636 0.164239 -0.009226 0.410425 0.036500 -0.821452 0.414811 -0.873498 0.019831 -0.015547 0.045578 0.469937 -0.191795
a24966 -0.037839 0.170902 -0.044236 0.223967 0.595080 0.126474 0.307472 -0.057673 -0.163499 0.257177 -0.434763 0.359598 0.060863 -0.210994 0.003006 -0.014444 0.142123 0.208365 -0.090163 0.024514 0.184808 -0.216973 -0.521040 0.242004 0.270490 -0.664999 -0.065699 0.397539 -0.193320 0.114174 -0.048648 0.339627 -0.140173 -0.099568 -0.297721 -0.136901 0.270711 0.072058 -0.047714 0.233575 0.678845 0.366666 -0.090634 0.401390 0.033987 -0.656948 -0.018980 -0.305769 0.097550 -0.229185 0.080486 -0.078085 0.255463 0.251914 0.219085 -0.316181 -0.385374 -0.119091 -0.066332 -0.206423 -0.174050 0.156770 -0.704816 0.075986 -0.642524 0.232708 -0.120487 -0.245128 0.197576 0.050231 0.068287 -0.387539 0.645535 0.143328 0.765307 -0.127374 -0.223763 0.178763 0.137379 0.265128 -0.042196 0.398609 0.306124 0.520682 0.482074 0.413562 -0.466342 -0.097680 -0.428408 0.024778 0.085212 -0.323029 0.733659 0.610359 -0.298632 0.201888 -0.310229 -0.161701 0.004704 0.012708 0.140537 0.028123 -0.327020 -0.072240 -0.328722 -0.262472 -0.362287 -0.045976 -0.374407 0.452659 0.112416 0.101417 -0.888490 -0.170061 -0.250056 -0.345924 0.015413 -0.224779 0.469924 0.173308 0.014147 0.313423 -0.156211 0.121890 0.320280 -0.276204 -0.253418 -0.384218
a2440 -0.147331 0.154781 -0.320526 0.342166 0.149479 0.281627 -0.504185 -0.061843 -0.317810 0.454928 -0.065184 0.117234 -0.135360 0.011597 0.285010 0.136012 -0.088679 -0.157279 0.423632 0.431241 -0.013010 -0.226628 0.081875 -0.014667 -0.704563 -0.085000 0.539981 0.052238 0.206429 0.268694 0.741872 0.209746 0.068624 0.290209 -0.103345 0.349984 0.214603 0.161911 0.338358 0.440655 -0.122602 0.036005 0.180711 0.687008 -0.288975 -0.199124 -0.208828 -0.018936 -0.289500 -0.170272 -0.334982 -0.510595 0.641114 -0.139970 -0.149558 0.327748 -0.223079 0.635116 -0.493363 0.034623 0.383318 0.087465 -0.327037 -0.194143 -0.605572 -0.070659 -0.327705 0.336216 0.379479 -0.023742 -0.250019 0.165291 0.516594 0.103677 0.359598 -0.236804 -0.253699 -0.010591 -0.514732 -0.065223 -0.078845 -0.582320 -0.112547 -0.008657 -0.025943 0.286654 -0.477160 -0.317088 -0.349131 -0.076238 -0.431060 -0.581890 -0.259116 0.908751 -0.240097 0.017002 -0.107800 0.403375 0.330881 -0.054877 -0.248276 -0.145528 0.167451 0.219037 -0.484163 0.067266 0.495728 0.049003 -0.156371 0.037030 -0.351070 0.107836 -0.263017 -0.111042 0.277582 -0.268832 0.388896 0.231575 0.048835 -0.595623 0.013140 0.498523 -0.298231 -0.351003 -0.001707 -0.604820 0.107284 0.091994
a2665 0.045816 0.261004 -0.425786 -0.278187 -0.079435 0.135598 -0.059329 0.686227 0.389244 0.555402 -0.579202 0.235499 0.241681 0.395639 -0.350407 -0.325653 -0.207106 0.148238 0.363493 -0.145495 0.378221 -0.542696 -0.566701 -0.176141 -0.201481 -0.149040 -0.075803 0.091995 0.101187 0.100723 0.349448 0.039938 0.125654 -0.057720 -0.043652 0.009522 -0.170782 0.031193 -0.046156 0.031259 0.341008 0.099905 -0.093245 0.508301 -0.185020 -0.771705 0.278788 -0.644519 -0.079062 -0.072981 -0.226731 0.048409 -0.015153 0.208789 -0.568820 0.490177 -0.402680 -0.166754 0.455106 -0.064247 -0.424718 0.345464 0.117770 0.089205 0.334785 0.080656 0.207203 0.742442 0.584327 0.754553 0.000027 0.123863 0.243310 0.454914 0.184388 0.240459 -0.711436 -0.303311 -0.326137 0.206085 0.262055 -0.175629 0.157306 0.307111 0.239791 -0.052721 -0.277385 0.742576 -0.927012 0.109276 0.766227 -0.348234 0.036238 0.359197 -0.276125 -0.055403 -0.539460 0.327617 -0.244714 -0.259535 -0.033085 -0.180868 0.043891 -0.326370 -0.126204 -0.130880 -0.439126 0.328997 -0.111848 0.599353 0.275512 -0.114281 -0.330861 -0.110212 -0.333939 -0.816839 0.533551 -0.122480 0.178098 0.064080 -0.241626 0.353259 -0.604801 0.138297 0.103681 -0.148966 0.098032 0.043695
a887 0.009362 0.289914 -0.193644 0.199406 0.258987 -0.049619 0.020951 0.104972 -0.198783 -0.274979 -0.371265 0.089078 -0.244507 -0.217900 0.181522 0.229424 0.416227 -0.136547 0.220941 -0.288716 0.320221 -0.221635 0.024712 -0.002644 -0.169348 -0.227448 0.744457 0.078410 -0.230148 0.711687 -0.026754 -0.021395 0.405322 0.194093 0.373069 -0.049543 0.043876 0.107933 0.094994 -0.140267 0.346273 -0.491437 0.055856 0.010718 -0.298659 -0.397882 -0.176447 -0.372918 -0.004989 -0.243383 -0.405912 -0.286306 0.450493 0.200050 -0.072432 0.146345 0.032901 -0.520716 -0.013663 0.188787 -0.218284 0.513591 0.136413 -0.055774 -0.215076 0.546391 0.428367 0.153740 0.071529 0.276957 0.048812 -0.107875 0.536900 0.435264 -0.301289 0.027417 0.294441 -0.419079 -0.246622 0.215266 -0.188747 0.217502 0.151028 0.254338 -0.262421 0.435360 -0.535089 0.226440 -0.231067 -0.274948 0.025148 0.303598 0.342892 0.099979 -0.041845 0.288640 0.167650 0.437728 0.288155 0.328469 -0.179450 0.191511 -0.416333 -0.188688 0.025428 -0.071746 0.041974 0.191494 0.065876 0.279192 -0.526199 -0.250039 0.243022 -0.236363 0.241524 -0.173853 0.086883 -0.147262 0.231361 -0.684847 -0.118922 0.131153 -0.638008 -0.137117 -0.447729 0.000009 0.374934 -0.243325
a8224 -0.243912 0.129818 0.103285 0.418023 0.301752 -0.132720 -0.153903 -0.283634 0.160060 0.340760 0.150081 0.003616 0.086161 -0.368877 0.314784 0.304247 -0.263946 0.182878 -0.265455 0.374896 0.469061 -0.058649 0.147926 0.392694 -0.260913 0.010163 0.236342 0.272228 0.436453 -0.113316 0.585656 0.366204 -0.237918 0.492007 -0.018658 0.287397 0.429276 0.141342 -0.052549 0.487307 0.075198 -0.161794 0.383876 0.251469 -0.011131 -0.009076 0.331474 -0.121461 -0.171796 -0.247509 -0.207465 -0.196052 0.565608 0.403902 0.393074 0.230185 -0.047957 0.395533 -0.204986 0.105286 0.037679 0.597623 -0.283231 -0.070898 -0.855996 0.506110 0.064942 -0.115509 -0.206954 0.087572 0.115510 -0.267942 -0.010568 -0.002914 0.057433 -0.262554 -0.259403 -0.116048 -0.078035 0.193563 -0.564436 -0.527424 0.050750 0.530207 -0.239748 -0.015551 -0.570222 -0.107621 0.001383 -0.204033 0.311136 -0.003930 0.071186 0.984305 -0.567077 0.465486 -0.257206 -0.324872 0.145932 -0.106595 0.068975 -0.014388 -0.090602 -0.064276 -0.099859 -0.308331 0.186754 0.206325 0.120601 -0.238043 -0.262618 0.105947 -0.326291 -0.485366 0.221708 -0.115477 0.193715 0.008660 0.155280 -0.072881 -0.220210 0.552475 -0.483225 -0.173259 -0.025298 -0.128184 0.419608 -0.174611
a12182 -0.406332 0.331721 -0.531806 0.383800 0.130820 0.142657 -0.122039 0.261960 0.062863 0.236670 -0.059198 0.421970 -0.532085 -0.066177 0.199402 0.134079 0.661311 0.160576 0.388731 0.529258 0.473103 0.201984 -0.110104 0.138766 -0.558354 -0.082097 0.479632 0.707019 -0.083496 0.205212 0.215401 0.116264 0.524624 -0.063132 -0.505783 0.311162 0.342812 0.221328 -0.145151 0.264149 0.177422 0.027387 0.116642 0.908236 -0.096026 -0.464065 0.336423 0.084341 -0.082815 -0.322396 -0.157502 -0.059084 0.466396 -0.015642 -0.201420 -0.043340 0.299630 0.016514 -0.078719 0.144179 -0.193016 0.317628 -0.245505 0.075046 -0.304347 0.247190 -0.022324 -0.376068 -0.182596 0.210431 0.067316 -0.089857 0.258008 0.165453 0.695914 0.313373 -0.365521 0.420493 -0.810150 -0.225899 0.092871 -0.020692 -0.300097 0.712622 -0.084583 0.020359 0.015610 0.012756 0.019264 0.231805 0.083903 0.208101 0.388686 -0.044315 -0.282431 -0.376500 -0.490987 -0.045253 0.001421 -0.417609 -0.047804 0.253977 0.230410 0.003869 -0.238188 -0.542072 -0.032946 0.420112 0.394038 0.196625 -0.342533 0.034375 -0.002342 -0.338083 0.330635 0.144053 0.243631 -0.162290 0.265141 -0.090168 0.300458 0.495928 -0.384434 -0.157380 0.245807 -0.432189 -0.571851 -0.161490
a20193 0.055232 0.152261 -0.427212 0.338716 0.788132 0.137639 -0.550117 0.418791 -0.081382 0.341293 -0.366046 0.409620 0.284028 0.019804 0.406618 0.140246 -0.017320 0.145544 0.362604 0.036226 -0.462271 -0.445106 0.159762 -0.179128 -0.305363 -0.002739 0.671285 0.606407 0.031883 -0.127683 0.227503 -0.137635 0.058867 -0.091172 0.375350 -0.064683 0.121486 -0.327685 0.368522 0.349109 -0.004693 -0.415918 -0.288265 0.598717 0.239349 -0.222663 -0.077035 -0.022469 -0.394246 -0.347061 0.000221 -0.027522 0.201001 -0.436249 -0.220317 0.364959 -0.309556 0.394312 -0.326197 -0.170195 0.039281 0.642825 -0.099939 0.148925 -0.549019 0.016017 0.206180 0.035353 -0.444863 0.390931 -0.484835 -0.187476 0.513175 -0.120267 0.298608 -0.174524 -0.318272 -0.382120 0.052025 0.234805 -0.455110 -0.467525 -0.089327 0.409790 0.472713 0.350072 -0.502192 0.455999 0.078525 -0.414751 -0.178946 0.418184 0.522258 0.634307 0.491191 0.423055 -0.460422 -0.207124 -0.376112 -0.235804 -0.288776 -0.057766 0.158782 0.055055 0.289489 0.025788 0.347567 0.099162 0.116436 0.210005 -0.824887 0.195650 -0.159251 -0.029864 0.209506 -0.629732 0.099065 0.096130 0.323766 -0.357158 0.421471 0.244988 0.105708 -0.547656 -0.356954 -0.034481 0.245614 0.103450
a82920 -0.357385 0.016782 -0.025365 -0.039056 0.625056 0.020881 -0.479849 -0.257294 0.509796 -0.109265 -0.491841 0.354920 -0.165942 -0.288222 0.328378 -0.322711 -0.307677 -0.311142 0.582447 -0.100760 0.375958 -0.269944 0.075479 0.264374 0.220192 0.556760 0.071308 0.342340 0.075989 0.511241 0.285335 -0.169961 0.187233 0.418671 0.042206 -0.412022 0.270001 0.003557 0.182719 -0.012448 -0.231502 -0.582895 0.084069 0.277619 -0.170478 -0.093870 -0.326522 -0.311632 0.180565 -0.662805 -0.499794 0.298265 -0.185220 -0.180433 0.024516 0.047469 0.107431 -0.346250 -0.177973 0.073911 -0.031573 0.497523 0.006268 0.134484 0.027184 -0.032040 0.416730 -0.023135 -0.115504 0.150092 0.126017 -0.031543 0.351927 0.083958 -0.109834 0.027711 -0.219073 -0.309623 -0.474058 0.025830 0.155363 -0.009620 0.194863 -0.076840 0.219780 0.295054 -0.531622 -0.158766 -0.089972 -0.013357 0.367735 0.329992 0.651602 0.348062 -0.576810 -0.013920 -0.041959 -0.129666 0.159097 -0.156783 0.260096 0.161926 0.132598 -0.605695 0.044265 -0.325129 0.268456 0.043146 0.043420 0.185678 -0.739247 0.371701 -0.104359 -0.163441 0.030736 -0.155367 0.735580 -0.459464 -0.087604 -0.177075 0.100885 -0.131733 0.010483 -0.601855 0.373011 0.106450 0.595731 0.074582
a10169 -0.230428 0.018078 -0.047768 0.113492 0.820519 0.517488 0.577753 0.570795 0.127771 0.198530 0.358280 0.295073 0.500808 0.003726 0.684007 0.040773 -0.216426 0.099250 0.146270 -0.023482 0.385638 -0.085489 -0.042230 0.214382 -0.286167 -0.117042 0.175637 0.315000 -0.044947 0.165656 0.398924 0.199682 -0.052625 -0.237472 0.082591 -0.282234 0.297258 -0.253616 0.345874 0.371181 0.002066 -0.168886 0.110802 0.782310 0.045417 -0.149712 -0.258230 -0.061524 -0.056423 -0.416616 0.237095 -0.002728 0.008515 0.098255 -0.415275 0.294046 0.010822 0.087041 -0.503987 -0.205044 0.081875 -0.150954 -0.040332 0.112570 -0.421195 0.047326 0.334950 -0.289059 0.074837 0.306006 -0.483351 -0.587499 -0.051418 -0.038588 0.354749 -0.243038 -0.119413 0.526633 -0.537700 0.170908 0.048177 -0.541300 0.199290 0.605826 -0.083505 0.171179 -0.380559 -0.183051 0.095267 0.371365 0.117714 0.264654 -0.223322 0.267881 -0.009160 0.254856 -0.281718 0.175714 0.066859 0.228312 0.161498 0.198146 0.283823 -0.209405 -0.345838 -0.142940 -0.594891 0.036232 0.138250 0.156117 -0.294497 0.091674 -0.441479 -0.343867 0.222052 -0.491467 0.297774 -0.114054 -0.114740 -0.097613 0.214302 0.093786 0.223621 -0.591399 -0.017281 -0.348187 0.058415 -0.062160
a12350 -0.489251 0.032678 -0.373904 0.428876 -0.133604 -0.137406 -0.023282 0.275981 0.443991 -0.105631 0.044145 0.372761 -0.330025 -0.209665 0.328431 0.103981 0.327139 0.094377 0.322623 0.429643 0.210572 -0.093020 -0.044113 0.253573 -0.439263 -0.114446 0.386745 0.446809 -0.176069 0.199547 0.424135 0.240667 0.516191 0.144347 -0.027150 0.225078 0.351737 0.073682 0.056387 0.114649 -0.288122 -0.121944 0.042271 0.682806 0.060408 -0.587687 -0.291865 0.164272 0.160339 -0.836557 -0.176023 -0.368099 0.042736 -0.348997 0.249909 -0.351786 0.192108 0.104875 -0.220946 0.182959 0.230985 0.097331 -0.001804 0.118311 -0.512553 0.352628 0.530669 -0.043355 -0.177771 0.231851 0.163427 -0.247599 0.148725 0.260543 0.208385 0.075950 -0.078361 0.290660 -0.938267 -0.693426 0.001987 -0.175127 -0.105714 0.040357 0.086431 -0.126420 -0.251951 -0.027905 0.088987 -0.058515 0.132541 0.031582 0.516509 -0.031914 -0.344921 0.423320 -0.316994 -0.362982 0.006535 -0.063230 -0.085678 0.497174 0.047453 -0.123433 -0.279987 -0.034128 -0.371646 0.233048 0.087973 0.344961 -0.331954 -0.170787 -0.354925 -0.241184 0.122075 -0.358309 0.675726 -0.105241 0.040084 0.047378 -0.045209 0.435582 0.099533 -0.367377 0.282272 -0.430884 -0.030293 -0.031538
a22563 0.067839 0.148382 -0.030423 0.345001 0.367812 -0.535296 0.114943 0.215560 0.330414 0.163035 0.059858 0.066705 0.006955 -0.290244 0.192423 0.249174 -0.123934 0.381814 0.084750 0.068691 -0.096459 -0.493594 0.059422 0.331096 -0.371937 0.316963 0.006728 0.287223 0.067216 -0.227998 0.544580 0.475250 0.043082 0.170620 0.238091 0.046775 0.151737 0.150006 0.097474 -0.081030 -0.270236 -0.596180 0.364259 0.395892 0.276641 -0.098461 -0.249000 0.103542 0.009634 -0.534291 0.011196 0.059373 0.503956 0.274884 -0.216036 0.200406 -0.055059 0.381034 -0.479976 0.142386 0.129198 0.310114 -0.430549 0.525742 -0.389611 0.167042 -0.054073 0.094422 -0.368095 0.356317 0.158574 -0.008664 0.040536 0.084668 0.340451 0.465830 -0.461764 0.253214 0.158742 0.099763 0.067831 -0.093361 0.199704 0.455862 -0.284858 0.049590 -0.662802 -0.498609 -0.073300 -0.109011 -0.053350 0.045332 -0.132572 0.707320 -0.392501 0.194363 0.088737 0.434780 -0.164425 -0.159924 0.051577 0.125153 -0.438220 0.314643 -0.442140 -0.317000 0.315276 0.170088 0.260502 0.136988 -0.494002 0.191128 -0.310827 -0.183968 -0.291115 -0.460615 0.414138 -0.077755 0.249565 0.255721 0.129054 0.878438 -0.245602 -0.116166 -0.294493 -0.028144 -0.111450 -0.156150
a12576 -0.043217 0.213224 -0.216696 0.086089 0.721873 0.068705 -0.367597 0.244013 0.416951 -0.282052 -0.143890 0.570959 -0.192619 -0.455380 0.501886 0.096784 0.020564 -0.401581 0.204998 -0.386231 0.512518 -0.257982 -0.303518 0.464424 -0.383620 -0.280273 0.547474 0.141973 0.098642 0.424132 0.404057 -0.084061 0.210702 -0.088630 0.392844 -0.081789 -0.044416 -0.058642 0.437387 -0.147698 0.057222 -0.807233 0.482909 -0.179481 -0.140083 -0.284117 -0.096325 -0.101176 0.147346 -0.610861 -0.657935 0.167847 0.220531 0.330352 -0.196797 0.196780 0.007670 -0.122477 0.223959 -0.329369 0.040657 0.336387 0.059854 -0.080391 0.064474 -0.171264 0.446195 0.328720 -0.021953 0.205330 -0.134890 0.213431 0.375663 0.158021 0.171377 -0.358583 -0.075646 -0.194619 0.124738 0.031798 -0.013274 0.177666 -0.008603 0.372688 -0.031936 0.407069 -0.372155 0.098779 -0.136822 0.041199 -0.191789 0.558993 0.080969 0.157128 0.107950 -0.315525 -0.013880 0.404330 0.457867 -0.000650 -0.243135 -0.086289 0.218246 -0.133575 -0.012596 -0.028759 0.285070 0.262404 -0.318055 0.365124 -0.558159 -0.094324 0.078929 -0.324273 0.276384 0.073993 0.135583 0.020247 0.238937 -0.367467 -0.266013 -0.009541 -0.087954 -0.255041 0.338643 -0.008465 0.881072 -0.099007
a15429 0.044509 0.200912 -0.401168 0.334494 0.491074 0.023947 0.070543 0.113111 0.538644 0.172643 -0.042039 0.915945 0.187842 -0.178859 0.439422 -0.061565 0.275913 0.145108 0.474589 0.222301 0.223913 0.030538 -0.098585 0.346720 -0.376734 0.026511 0.454363 0.484275 -0.181188 0.286850 0.199610 -0.001865 0.019457 -0.236852 -0.238092 -0.229467 0.363827 -0.240106 0.119993 0.024941 -0.101197 -0.210535 -0.112875 0.773557 0.210076 -0.608483 -0.056849 0.202579 0.331735 -0.334678 -0.319015 0.155446 0.197961 -0.014413 -0.010434 -0.232594 0.035660 0.618758 -0.261009 0.175831 0.097151 0.038074 -0.573064 -0.020826 -0.549936 0.059090 0.263760 -0.113224 -0.241594 0.266598 0.279086 0.072358 -0.040668 0.127880 0.632495 -0.036848 -0.308700 0.401665 -0.573455 -0.057717 0.299931 -0.339871 -0.080475 0.599207 -0.072851 0.052803 -0.202585 -0.370955 0.058654 0.260311 0.094679 0.237490 0.461690 -0.198334 -0.175095 0.041050 -0.245374 0.033037 0.186036 0.285996 -0.077461 0.357360 0.607986 0.084284 -0.623207 0.289104 -0.209609 0.398304 0.160906 0.039120 -0.237571 -0.048265 -0.475264 -0.526847 0.279078 -0.279437 0.541487 -0.168093 0.382521 -0.253383 -0.031241 -0.070928 0.456872 -0.720010 0.133597 -0.643692 0.017164 -0.089127
a8703 0.335647 0.194513 -0.254059 0.032420 0.638219 -0.362157 0.030630 0.286607 -0.268519 0.223695 -0.097119 0.452361 0.455295 -0.196673 -0.142491 0.044077 0.002586 -0.154374 0.763137 0.020804 0.100499 -0.173465 -0.254450 0.301032 -0.482458 0.243418 0.282035 0.253654 0.341714 -0.138305 0.187917 0.286948 -0.021945 -0.095739 -0.050948 -0.134799 0.257574 -0.379062 0.315929 -0.128798 0.025277 -0.110729 0.314240 0.325201 0.036549 0.100179 -0.124348 -0.124123 0.033848 -0.444553 -0.040132 -0.159118 0.215726 -0.388068 0.119219 0.238147 -0.117827 0.384828 -0.406104 -0.214237 0.329421 0.466591 -0.359659 0.097416 -0.465330 0.379667 0.056199 0.327695 -0.740544 0.632829 -0.463017 -0.004422 0.147718 0.071475 0.311089 0.100529 -0.021856 -0.128606 -0.377448 -0.277417 -0.618382 -0.323046 -0.207709 0.485407 -0.274276 0.335001 -0.260043 -0.050448 -0.181242 -0.025752 -0.250002 0.416823 -0.085070 0.310241 -0.299051 0.126130 -0.119483 -0.091786 0.465781 -0.034884 -0.124541 -0.232836 -0.038052 -0.138600 -0.579065 -0.170911 -0.366189 0.449326 -0.222427 0.265492 -0.380699 -0.438212 -0.061549 -0.035236 -0.001365 -0.424181 -0.253360 0.401059 0.421104 -0.453552 0.332674 1.045388 -0.165741 -0.632054 -0.397302 0.062027 0.174701 -0.107344
a2653 -0.859961 0.081862 -0.376956 0.327180 0.687450 0.066855 -0.043907 0.244375 0.213417 0.328964 0.192717 0.266253 0.050543 -0.267677 0.295337 0.091305 0.152381 -0.023116 0.040285 0.551586 0.239700 0.090641 -0.229066 0.271850 -0.596816 0.029585 0.132596 0.861217 0.074581 0.049940 0.499870 0.070910 0.440768 -0.232585 -0.131787 0.096681 0.271163 0.209096 0.203454 0.004411 0.228771 -0.070512 0.324374 0.705060 -0.153657 -0.242125 -0.033362 0.198812 -0.086783 -0.326582 0.229764 -0.045759 0.241159 0.088111 -0.597522 -0.031128 0.015943 -0.085006 -0.129095 0.445251 -0.076174 0.197075 -0.083153 0.201188 -0.629769 0.097586 -0.082558 -0.485830 0.011923 -0.063674 0.197045 -0.279690 0.457629 -0.103672 0.331119 -0.135912 -0.408967 0.167376 -0.519165 0.166908 0.064088 -0.545521 -0.178427 0.482427 -0.473573 0.457561 -0.011344 -0.104890 0.263301 -0.204854 0.054740 0.054592 0.195259 0.085681 -0.463745 -0.554686 -0.044767 0.015497 0.026230 -0.394178 0.339095 0.119342 0.133892 0.257841 -0.244964 -0.230944 0.125717 0.368601 0.676592 -0.157516 -0.253868 -0.169341 -0.279512 -0.671485 0.547181 0.061953 0.187967 -0.205217 -0.034556 -0.032150 -0.056981 0.611500 -0.428396 -0.008554 0.045883 -0.071308 -0.277965 -0.283342
a230879 0.043124 0.587498 -0.671451 -0.303892 0.131463 -0.252559 0.159823 0.721637 0.447015 0.696722 -0.554296 0.102349 -0.196367 0.236305 0.028323 -0.287419 -0.354399 0.228447 0.474184 -0.281779 0.314424 -0.761168 -0.420518 -0.192185 -0.301520 -0.186416 0.173195 0.203139 0.183261 -0.059094 0.533999 -0.260322 0.137147 -0.000110 -0.091748 0.132673 -0.286311 -0.007203 0.118523 0.209468 0.168357 0.205539 -0.229968 0.504357 0.058849 -0.780309 0.169995 -0.309112 -0.182469 -0.207378 -0.230547 0.438967 0.128363 0.048352 -0.704327 0.501038 -0.322233 -0.168758 0.783307 -0.183990 -0.309784 0.636169 0.025079 0.312230 -0.077912 0.127016 0.018205 0.791597 0.633903 0.961089 -0.189178 0.270328 -0.010672 0.438903 0.176024 -0.032412 -0.550250 -0.230027 -0.451137 0.446960 0.078949 -0.388874 0.028932 0.067532 0.217403 0.088380 -0.494346 0.877441 -1.089876 0.192088 0.905955 -0.350827 0.179416 0.709100 -0.506431 0.279273 -0.269841 0.429270 -0.440195 -0.300853 0.177928 0.107616 0.059067 -0.317907 0.156694 0.015171 -0.100787 0.345820 -0.145912 0.722385 0.070651 -0.076824 -0.372555 -0.070121 -0.098014 -0.845920 0.957534 -0.221052 -0.302183 -0.033167 -0.350729 0.183404 -0.692485 0.143205 0.479806 -0.091282 0.223020 0.007745
a2658 0.023586 0.467131 -0.533110 -0.185962 0.235306 -0.059317 0.029553 0.702878 0.458641 0.755777 -0.648978 0.300654 -0.045296 0.334235 -0.079446 -0.352175 -0.144330 0.094281 0.509138 -0.028280 0.529795 -0.660598 -0.639737 -0.266981 -0.251945 -0.103149 -0.033616 0.214095 0.222724 0.255246 0.655562 -0.368601 0.186540 -0.065324 -0.060701 0.040660 -0.165455 -0.047457 0.132935 0.135354 0.253239 0.130871 -0.191433 0.466271 -0.172325 -0.743487 0.416716 -0.367402 -0.167270 -0.122227 -0.329211 0.244795 0.092545 0.015661 -0.641328 0.564051 -0.315697 -0.253442 0.720424 -0.203239 -0.330025 0.402603 0.181317 0.160625 0.084804 0.119819 0.173745 0.812366 0.591360 0.847361 -0.111769 0.288074 0.072279 0.554801 0.143512 -0.071873 -0.594356 -0.351416 -0.500372 0.316565 0.258833 -0.543718 0.097915 0.139422 0.103289 0.248227 -0.241362 0.899583 -1.027676 0.276495 0.999835 -0.320522 0.193237 0.469841 -0.473452 0.291654 -0.416034 0.348999 -0.466835 -0.405266 -0.036131 -0.000334 0.090369 -0.406138 0.194167 -0.089012 -0.350966 0.321649 -0.271921 0.771850 0.127605 -0.191029 -0.333787 -0.067179 -0.147720 -0.754632 0.884312 -0.225275 0.072018 -0.013615 -0.251930 0.315347 -0.609526 0.119683 0.496213 -0.120806 0.250877 -0.169608
a39890 -0.138359 0.079983 -0.389891 -0.192024 -0.134662 0.019303 -0.647106 0.211530 0.167237 0.044107 0.243329 0.218320 -0.288762 -0.469404 0.102632 -0.557845 0.204837 0.063741 0.450565 -0.382267 0.605388 -0.188664 -0.235153 0.917871 -0.077423 -0.371891 0.745183 0.482438 0.317098 0.280088 0.414198 0.092853 -0.397826 -0.106834 -0.253625 -0.026448 -0.521250 0.268855 0.019009 0.362070 0.361258 -0.393230 -0.136376 0.542990 0.309911 -0.692362 0.146630 -0.208400 -0.356344 -0.148526 0.036040 0.197831 -0.008124 -0.257525 -0.122497 0.111030 -0.322791 -0.404966 0.046561 -0.235153 -0.086025 0.302476 -0.070940 0.189547 -0.308307 0.200863 -0.072488 0.201408 -0.251884 0.411749 0.261927 -0.622049 0.165679 -0.192536 0.988369 -0.381155 -0.415202 0.173111 -0.293047 0.015865 -0.327745 -0.455264 0.136380 0.496815 -0.371804 -0.513375 -0.307210 0.133230 -0.307803 0.075185 0.035690 -0.005582 -0.238831 0.551694 0.151783 -0.207945 0.024247 -0.269508 0.293636 -0.317552 0.008878 -0.141959 -0.315201 0.129524 -0.269692 -0.230305 -0.061257 -0.147987 -0.297917 0.365960 0.053236 0.050346 -0.342268 0.217693 -0.133321 -0.093036 0.040371 -0.016467 0.484203 -0.208257 -0.013219 0.524445 -0.419390 -0.045920 -0.494606 -0.615334 -0.076658 -0.354544
a31353 -0.185400 0.419056 -0.303851 0.091815 0.065685 -0.120834 0.128256 0.463694 0.097583 0.665435 -0.289260 0.825997 -0.532631 0.146408 0.278990 0.172753 0.499525 0.259673 -0.114599 0.480021 -0.050336 -0.080421 -0.289859 0.440514 -0.121341 -0.069723 -0.238915 0.585285 0.058215 -0.099485 -0.306331 0.015822 0.050638 0.522178 -0.073597 0.076982 0.567430 0.014674 0.278524 -0.144971 0.325868 -0.109482 -0.276519 0.374077 0.227828 -0.644927 0.273117 -0.590242 -0.398760 -0.292709 -0.020523 0.132182 0.081887 0.465028 0.000427 -0.356023 -0.149223 0.165117 -0.146443 -0.245342 -0.298187 -0.126388 0.098733 -0.091590 -0.552472 0.419926 0.615765 -0.027976 0.415102 0.340311 0.108093 -0.389497 0.249131 0.147423 0.364754 -0.151145 -0.449850 -0.079753 -0.392060 -0.493783 0.720268 -0.313513 -0.184259 0.406144 0.152827 -0.127243 -0.522592 0.380782 -0.029841 0.237771 0.109760 0.203608 0.721836 0.300807 -0.525785 0.036881 -0.348788 -0.283691 -0.198283 0.012276 0.234292 0.039307 -0.056485 -0.260831 -0.601056 -0.734946 0.083083 0.338338 -0.169330 0.114208 -0.246432 -0.101507 -0.563528 -0.394284 0.190193 -0.242333 0.361481 -0.641924 0.356434 0.351015 -0.350034 0.150918 -0.359624 0.087613 -0.343337 -0.417053 -0.339628 -0.547769
a643221 -0.071949 0.513586 -0.836947 -0.324042 0.296858 0.400866 -0.949638 -0.011095 0.373148 0.658082 -0.533454 0.031129 -0.307999 -0.317433 0.006640 0.116745 0.061458 -0.270048 0.578384 0.262379 -0.432294 -0.306261 -0.202840 0.426125 -0.749680 0.127931 -0.336289 0.152425 1.039792 0.262363 0.156576 -0.466165 0.741522 0.003807 -0.010318 -0.374537 0.220371 -0.141371 0.304211 0.742936 0.287417 0.286698 -0.012896 0.540775 0.289902 -0.051659 0.256483 -0.990974 0.201624 -0.102291 -0.494297 0.152696 -0.423600 0.383659 -0.177729 -0.166510 0.159949 0.118442 0.050263 -0.402413 -0.060849 0.228701 0.035712 -0.175880 -0.597213 0.303534 -0.300508 0.079714 -0.318112 0.592230 0.030241 -0.877515 0.265368 0.465846 0.417110 -0.317745 -0.410807 -0.336094 -0.581956 -0.042782 0.345005 0.138863 0.897104 0.590335 -0.034786 -0.252856 -0.623359 0.255644 -0.369181 -0.073344 0.149667 0.483150 0.357347 0.317193 -0.202227 -0.389441 0.151306 -0.145671 -0.137391 -0.352125 0.225975 0.177701 -0.113583 0.179262 0.073490 0.035065 -0.051266 0.369369 -0.071683 0.011389 -0.366333 0.134605 -0.546581 -0.203815 -0.084620 0.279114 -0.598167 -0.341394 0.338518 -0.286906 0.118656 0.272716 -0.327255 -0.397300 0.422055 -0.546660 -0.142593 -0.007249
a23738 -0.202766 0.441592 0.028399 0.237942 0.074676 -0.181977 -0.375182 -0.179968 0.108975 0.288319 0.185805 0.254550 -0.302564 -0.633831 0.215507 -0.178780 0.090938 0.243032 0.154433 0.258848 0.506057 -0.092343 0.078803 0.719497 -0.494100 0.247606 0.223351 0.419732 -0.065552 0.098045 0.590945 0.294196 0.479234 0.390373 -0.010595 0.264698 0.328726 0.103119 -0.199431 0.275729 0.171888 -0.292386 0.457149 0.527071 -0.112880 -0.003184 -0.217616 -0.283415 -0.056469 -0.558513 -0.057949 -0.354300 0.502309 0.026347 -0.115778 -0.018588 -0.138641 0.040484 -0.215430 -0.060295 -0.127277 0.482694 -0.660466 0.171673 -0.679444 -0.002992 0.185176 0.162793 -0.113743 0.273232 0.218138 -0.210485 0.429296 -0.305747 0.293512 0.070852 -0.370761 0.195679 -0.242512 -0.085014 0.006629 -0.292402 -0.060152 0.321768 -0.346578 -0.432480 -0.117711 -0.226380 -0.132834 -0.129953 -0.123629 -0.017072 -0.342844 0.243069 -0.541177 0.006979 -0.022800 -0.232767 0.463847 -0.175045 0.548115 0.410651 0.019331 0.286936 -0.244340 -0.800834 0.130622 -0.016528 0.125087 0.043626 -0.310905 0.073646 0.067529 -0.252632 0.371363 -0.375007 -0.045311 -0.129665 -0.066536 0.081638 -0.008709 0.473644 -0.039075 -0.470761 -0.247130 0.018946 -0.145824 -0.314832
a2696 0.297053 0.123092 -0.064495 -0.044687 0.151009 0.316364 -0.251802 0.296779 0.282540 0.365729 -0.700963 0.588598 0.149257 0.170230 -0.244806 -0.238119 -0.137049 -0.034481 0.176273 -0.008588 0.424280 -0.181129 -0.291198 0.048416 -0.114751 -0.074035 -0.379416 0.243931 0.282957 -0.238015 0.143947 -0.071720 0.011131 -0.121115 -0.196322 -0.354340 -0.151231 -0.076471 0.147084 0.205881 0.438206 0.164347 -0.029955 0.419393 0.031964 -0.380088 0.265776 -0.536972 -0.302171 -0.204234 -0.498546 0.006475 -0.200617 0.179221 -0.286051 -0.109315 -0.116047 -0.327859 0.315110 -0.186198 -0.257797 0.616732 0.041223 0.489077 0.195547 0.373661 -0.228308 0.367706 0.684035 0.600558 -0.395541 -0.058912 0.360083 0.346454 0.554299 0.208184 -0.427955 -0.308352 0.041013 0.293075 0.347594 0.101024 0.107257 0.170086 0.080605 -0.205336 -0.197312 0.366656 -0.899153 -0.003117 1.081964 -0.348877 0.482366 0.152271 -0.360742 0.012819 -0.106875 0.090744 0.170579 -0.158621 0.120559 -0.042019 -0.050596 0.015770 -0.138953 0.025978 -0.305626 0.431762 -0.490817 0.091197 0.296337 0.065236 -0.745834 -0.266449 0.015162 -1.061611 0.551150 -0.446001 0.548597 0.296777 -0.433644 0.820604 -0.223833 -0.240451 0.035674 -0.342453 -0.078544 -0.135357
a3220 -0.161878 0.329526 -0.333014 0.057281 0.505214 -0.480267 0.336510 0.498021 0.193432 0.442690 0.164052 0.093692 0.063835 0.029695 0.491808 0.590418 -0.030360 -0.050056 0.123946 0.004586 -0.370151 0.019902 -0.178247 0.275530 -0.029656 0.203895 0.222016 0.463057 -0.148351 -0.129665 0.385455 0.213877 -0.575067 0.435299 0.189279 -0.016762 0.356792 0.142266 0.221380 0.199262 0.138452 0.087402 0.172867 0.357709 -0.002758 -0.221705 -0.013311 -0.423579 -0.149971 -0.139883 0.167011 0.247062 0.337546 0.401818 -0.277859 0.093822 0.049481 0.508201 0.154959 -0.237545 0.206570 0.186578 0.020548 0.113098 -0.763367 0.680288 0.070205 0.025409 -0.467277 0.813517 -0.362377 0.008163 0.427098 -0.356020 0.332265 -0.006781 -0.371862 0.264235 0.097042 -0.185246 0.265646 -0.560685 0.185039 0.272474 -0.018378 -0.075939 -0.446282 -0.148832 0.239138 0.162592 -0.173102 0.142278 0.051432 0.585299 -0.816712 0.343499 0.042655 0.255372 0.021623 -0.268567 0.175634 0.185539 -0.292181 -0.117579 -0.556408 -0.647866 0.291846 0.204895 0.216138 0.297166 -0.305052 0.411836 -0.514688 -0.196183 0.176225 -0.040909 0.765803 -0.322684 0.024557 -0.061067 0.027258 0.615528 -0.320263 -0.485128 -0.444011 -0.539711 -0.246568 -0.250423
a3191 -0.075998 0.174619 -0.283020 -0.153715 -0.045064 0.246562 -0.632112 -0.042764 0.160432 0.174991 0.005594 0.156842 0.139667 -0.314430 0.384976 -0.168268 -0.129069 -0.056308 0.695252 -0.053317 0.497851 -0.067852 -0.589229 0.799357 -0.206164 -0.438519 0.541873 0.650366 0.187206 -0.039881 -0.030528 0.196300 0.032802 -0.048644 -0.262418 -0.127895 -0.443408 0.280800 0.042258 0.363132 0.448916 0.032789 0.091005 0.454431 0.153176 -0.649360 -0.332813 0.004403 0.005532 -0.039868 0.149051 0.143094 0.006632 0.057549 -0.493562 -0.036151 -0.510611 -0.263612 -0.246120 -0.342020 -0.109429 0.131221 0.157363 0.190493 -0.764315 -0.252747 -0.363085 0.136612 -0.030791 0.337867 0.431172 -0.479733 0.240788 -0.105899 0.760571 -0.292847 -0.485446 0.207806 -0.367530 -0.026978 0.312403 -0.081153 0.251994 0.331921 0.041566 -0.270357 -0.170460 -0.131702 -0.655015 0.127118 0.042731 0.062181 0.283246 0.504243 -0.028882 -0.348487 0.183210 -0.627720 -0.165692 -0.342428 0.172372 0.090810 -0.266486 0.479078 -0.311968 -0.259982 -0.263324 -0.179365 -0.211793 0.207021 0.208463 0.074182 -0.265044 -0.110136 -0.231419 -0.130746 -0.043910 0.182404 0.068339 -0.174761 0.248778 0.460317 -0.172559 0.500586 -0.604809 -0.563441 -0.279509 -0.252031
a1481 0.413195 -0.213606 -0.474927 -0.123018 0.399543 0.274919 -0.442382 0.030340 -0.030525 0.329050 0.383275 0.395169 -0.005366 0.017348 0.654510 0.405522 0.099066 0.443514 0.002515 -0.194201 -0.003562 -0.668654 -0.157018 0.293638 -0.813272 -0.357597 0.282545 -0.353818 -0.256054 0.196428 0.578874 -0.188076 -0.278944 -0.257466 0.256221 -0.276861 -0.012828 0.090451 0.545421 0.315879 0.215435 -0.127866 0.113860 0.448057 0.199330 -0.004822 -0.223094 -0.234501 -0.232835 -0.584890 -0.137041 0.210879 -0.191368 0.089737 0.199259 0.071606 -0.298474 0.269206 0.219781 0.156657 0.018869 0.312179 -0.306474 0.141659 0.191482 0.341423 0.103326 0.234768 -0.056823 0.231846 -0.829136 -0.046424 0.217606 0.018627 0.580014 -0.105871 -0.070226 -0.010346 0.137112 0.328078 -0.162328 -0.339143 -0.158384 0.312526 0.072917 0.231468 -0.858800 0.244078 -0.035280 0.333126 0.000174 0.333826 -0.498729 0.560431 -0.321546 0.087302 -0.171774 0.043954 0.249107 -0.352504 0.224939 -0.025904 -0.013138 0.025843 -0.077885 -0.152538 0.367527 -0.004770 0.221012 0.181269 -0.164644 -0.239328 0.020166 0.342877 0.089959 -0.209557 0.195072 -0.051134 -0.260762 -0.561430 -0.172151 0.429308 -0.271133 -0.357180 -0.502620 -0.614616 0.280734 0.040366
a4804 -0.128417 0.184022 -0.766621 0.112730 0.083357 0.245922 0.054309 0.147108 0.575765 0.243552 0.203293 0.733856 0.074295 0.011992 0.261488 -0.156484 0.289895 0.251719 0.446149 0.076990 0.644670 0.129886 0.330363 0.321645 -0.751008 0.005936 0.247747 0.392215 -0.185065 0.340271 0.107966 0.009585 0.231490 -0.152522 -0.432514 0.212142 0.522977 0.171422 -0.039991 0.290935 -0.043168 -0.047959 0.001833 0.948305 0.270057 -0.472326 0.150547 -0.005685 0.011753 -0.382597 0.078198 0.069611 0.215077 -0.103530 -0.400687 -0.110970 -0.016903 0.619490 0.035206 0.000088 0.044446 0.121617 0.043687 -0.186127 -0.533006 0.068629 0.481982 0.007001 -0.140127 0.356650 0.094221 -0.165861 0.132523 0.098028 0.419185 0.142750 -0.123171 0.575303 -0.809575 -0.361805 -0.061387 -0.127936 -0.070626 0.257897 -0.265471 -0.123513 -0.388822 -0.277889 -0.195632 0.068312 0.247637 0.143727 0.422742 -0.216537 -0.488969 -0.279018 -0.291514 -0.515305 0.059214 0.032792 -0.060862 0.235186 0.284708 0.356945 -0.264965 0.170406 -0.210830 0.613919 0.322312 0.486968 -0.389316 0.144210 -0.131569 -0.191792 0.212936 -0.104260 0.623492 0.058909 0.204685 0.174327 -0.157094 0.160875 0.028510 -0.576277 0.291109 -0.660303 -0.184537 0.032660
a642894 -0.170651 0.558635 -0.840262 -0.167701 0.418997 0.286223 -0.739463 0.116233 0.234567 0.553742 -0.740684 -0.014163 -0.216808 -0.513008 -0.068388 0.268911 0.114522 -0.234542 0.699897 0.170449 -0.553045 -0.288581 -0.006567 0.599930 -0.713447 0.289657 -0.170437 0.040461 0.937829 0.120375 0.489288 -0.303589 0.814053 -0.001627 0.121589 -0.397903 0.351994 -0.375695 0.378892 0.737972 0.327621 0.146259 -0.009580 0.577701 0.171122 -0.112849 0.089995 -0.988967 0.434549 -0.078652 -0.439689 -0.033784 -0.448574 0.291686 -0.171761 -0.257723 0.069609 0.243901 -0.127221 -0.233352 0.002849 -0.003794 -0.093625 -0.234980 -0.587393 0.400808 -0.175413 0.119253 -0.364741 0.690324 0.006917 -0.795566 0.164556 0.553936 0.265871 -0.023635 -0.449534 -0.323870 -0.579847 0.068452 0.181517 0.296286 1.082716 0.559902 -0.168293 -0.242016 -0.477285 0.459915 -0.342663 -0.023223 -0.042835 0.493910 0.414026 0.216888 -0.064310 -0.558416 -0.078970 0.003175 -0.173531 -0.156429 0.168202 0.343425 0.005639 0.079307 -0.201925 0.101444 -0.131958 0.387271 0.204919 0.084113 -0.318836 -0.039493 -0.464196 -0.233757 -0.279242 0.449580 -0.534419 -0.350477 0.451885 -0.474003 0.207773 0.341977 -0.358194 -0.368406 0.544866 -0.348582 -0.136902 -0.070317
a10796 -0.199772 0.245113 -0.121501 0.068817 0.571236 -0.428587 -0.115573 -0.109193 -0.079903 0.055742 0.120908 0.052469 0.047754 -0.523285 0.171711 0.381588 0.063097 0.437885 0.218709 -0.140863 0.305486 -0.023043 -0.157057 0.201190 -0.402056 -0.374533 0.349724 0.251561 -0.040897 0.212370 0.382356 0.169681 0.009876 0.245051 0.249002 0.230415 0.492789 -0.447666 0.224670 0.056025 0.520359 -0.073638 0.089543 0.575013 0.005273 0.253010 -0.167253 -0.288705 -0.148430 -0.019409 0.088911 -0.058194 0.566547 -0.013824 -0.139625 0.128253 -0.149496 0.262855 0.137207 0.082437 -0.015516 0.423173 0.104353 0.228677 -0.139919 0.557439 0.257256 0.621780 0.102309 0.146965 -0.111771 -0.131392 0.310354 0.033524 -0.026278 0.129094 -0.072678 -0.037597 0.104854 0.163652 -0.361003 -0.451772 0.032682 0.324840 -0.534929 -0.285277 -0.371552 0.308836 0.056912 0.275969 -0.347656 -0.071274 0.005159 0.336732 -0.030309 -0.184034 -0.364027 0.131353 0.661629 0.349270 -0.315475 -0.475166 -0.119485 -0.144552 -0.240219 -0.076674 0.075870 0.183423 -0.107086 0.021019 -0.477712 -0.245575 -0.264410 0.037102 -0.095978 0.064708 0.277311 0.168005 0.616796 -0.390740 0.075903 0.065515 -0.517451 -0.677212 -0.378167 0.038420 0.834374 -0.251871
a1688 -0.263956 -0.030645 -0.244891 -0.004910 0.834806 -0.108916 -0.236384 -0.169727 0.597546 0.403466 -0.044497 0.340596 0.062762 -0.261268 -0.023465 -0.123775 -0.319492 -0.170852 0.314183 -0.058130 0.171597 -0.161164 0.388714 0.585832 0.107919 0.457457 0.461333 0.244212 0.301491 0.705327 0.605897 -0.248822 0.033002 0.392570 -0.209026 -0.391362 0.139346 0.017745 -0.018502 0.099490 0.160977 -0.365333 0.114255 0.281925 -0.014353 -0.086210 -0.355184 -0.108837 0.115632 -0.935510 -0.298084 0.115235 -0.439219 0.067659 -0.492148 0.423834 0.300245 -0.367647 -0.146779 -0.289460 0.288511 0.458896 -0.262882 -0.269681 -0.014214 -0.339236 0.344233 0.133632 -0.087959 -0.174670 0.291332 -0.009793 0.286951 0.351477 -0.070892 -0.215108 -0.279636 0.032719 0.172574 0.244612 0.279083 -0.016771 0.664195 -0.238791 0.015473 0.320937 -0.248480 0.296752 -0.160616 -0.272429 0.068967 0.381859 0.523542 0.249223 -0.403478 0.253599 -0.034990 0.194673 0.583328 -0.271470 -0.229273 -0.085824 -0.077948 -0.411278 -0.024188 -0.466818 0.011011 0.044183 -0.245378 0.253219 -0.694516 -0.075710 -0.083154 0.058118 0.081807 -0.103440 0.363613 -0.555631 -0.019776 -0.202555 0.012871 -0.060556 -0.322212 0.094952 0.340305 -0.170488 0.506654 -0.356358
a117 -0.300814 0.263842 -0.780585 0.294703 0.101801 0.298921 -0.048228 0.197369 0.084405 -0.227943 -0.186749 0.615976 -0.084171 -0.214646 -0.018765 -0.349787 0.336395 0.406253 0.295371 0.297708 0.482569 0.058111 -0.011426 0.593759 -0.427779 -0.513110 -0.133031 -0.026194 0.094621 0.344315 -0.004874 -0.322979 -0.136808 -0.014976 -0.170050 -0.235316 -0.304769 0.338657 0.233171 0.101899 0.632038 -0.378138 -0.184010 0.199926 -0.078095 -0.518227 0.055598 -0.202082 0.173178 -0.080213 -0.340431 -0.040140 0.311670 0.021414 -0.016369 0.102777 -0.240941 -0.023776 -0.037129 -0.591167 0.164607 0.063806 -0.161681 0.362888 0.062340 0.443456 0.138763 0.163879 0.118570 0.620977 0.121484 -0.010536 0.210993 -0.210986 0.220695 0.032894 -0.196276 0.042847 -0.465497 0.044897 -0.302659 -0.100044 -0.278477 0.222448 -0.378588 -0.538308 -0.640983 -0.124067 -0.198981 -0.069741 0.118587 0.283475 -0.069191 -0.078719 0.362309 0.087106 0.463398 -0.063868 0.688782 0.208229 -0.166124 0.169104 -0.370865 0.194118 -0.170495 0.195682 0.131613 -0.050634 -0.079269 0.635535 -0.144883 -0.288478 0.386369 -0.207566 0.022329 0.085381 0.403707 -0.166906 0.514662 0.033137 -0.071035 0.343558 -0.720950 -0.389654 0.208453 -0.507489 0.168931 -0.388815
a35922 -0.576008 0.353082 -0.052654 -0.101328 -0.185649 0.058163 -0.305282 0.505190 0.183813 0.432157 -0.248765 0.506884 -0.036212 0.082233 0.236679 0.128620 0.658320 0.346285 -0.018856 0.164309 -0.039980 -0.289233 -0.624601 0.448800 -0.118386 -0.304963 0.213794 0.454813 0.124685 0.222385 -0.052532 0.064432 0.334838 0.499892 -0.207845 -0.369441 0.488612 0.101996 -0.060301 -0.103050 0.469269 0.189253 0.020868 0.345387 -0.229604 -0.350447 0.174871 -0.444553 0.039064 0.007118 -0.144537 0.120897 -0.062361 0.466426 -0.000938 -0.192082 0.162697 0.090055 0.070075 -0.447457 -0.107432 0.072908 0.277694 0.119145 -0.027047 0.108961 0.147585 0.001319 0.611853 0.284652 0.443251 -0.338351 0.641168 0.140514 0.453514 -0.067113 -0.200269 -0.135024 -0.169767 -0.210944 0.160970 -0.289123 0.040525 0.227456 -0.238486 0.026742 -0.578600 0.401220 0.024196 0.372344 0.118771 0.417078 0.148531 0.204853 -0.310692 -0.110957 -0.695981 -0.520223 -0.402296 0.147849 -0.165255 -0.000093 -0.586744 -0.200523 -0.639904 -0.407842 -0.425053 0.307044 -0.116166 0.544702 0.035226 0.047173 -0.302669 -0.092825 -0.216210 -0.083657 0.224590 -0.032742 0.244167 0.289042 -0.201260 0.103380 -0.226673 0.095086 -0.178040 -0.266768 -0.554619 -0.665174
a4335 -0.184717 0.538820 -0.017415 0.314110 -0.115167 0.083163 -0.462751 0.229840 0.332048 0.329281 -0.168021 0.421749 -0.237305 -0.411101 0.551088 -0.227388 0.637240 0.208791 0.284564 0.481883 -0.154536 -0.340334 -0.319751 0.291041 -0.616621 -0.265349 -0.100351 0.326786 0.038635 0.414046 0.099271 0.431858 0.353314 0.524831 -0.281995 -0.185077 0.407724 0.003070 0.196213 0.277854 0.026034 0.267775 0.197564 0.312639 0.282393 -0.667389 -0.072367 -0.277997 0.193600 0.096747 -0.175778 -0.061540 -0.060517 0.528247 0.114373 -0.463000 -0.041454 -0.045415 0.022485 -0.246723 -0.031870 0.137053 -0.011658 0.310634 -0.107379 -0.296722 0.277584 0.150178 0.409991 0.389589 0.267117 -0.264764 0.746297 0.071580 0.680194 0.206834 -0.225438 0.061043 -0.217701 0.480403 -0.105974 -0.288379 -0.079061 0.196578 -0.293548 0.181131 -0.256661 0.003596 -0.257493 0.044540 0.268437 0.449886 -0.103570 -0.118470 -0.427927 -0.229896 -0.077986 -0.476222 -0.287701 0.140872 0.266913 0.350445 -0.461569 -0.408135 -0.157019 -0.546876 -0.238925 0.234123 -0.561455 0.185752 0.061501 0.238901 -0.194708 -0.254538 -0.271800 -0.541974 0.024609 0.158731 0.282256 0.281435 0.040464 0.062491 -0.128463 0.339529 0.118021 -0.410638 -0.622513 -0.599146
a85352 -0.322390 -0.244792 0.174777 0.026787 0.622503 0.165501 -0.128840 -0.177741 0.525804 0.100393 -0.303098 0.125946 0.045935 -0.214921 0.354680 0.013293 -0.322573 -0.495079 0.321933 -0.283703 0.239954 -0.321746 -0.099935 0.423833 -0.009536 -0.012316 -0.004703 0.241014 0.194810 0.570147 0.269522 -0.162002 -0.208578 0.469427 0.013968 -0.480853 0.274159 0.075150 0.302618 -0.246838 -0.004918 -0.771205 -0.196552 0.333781 -0.010587 -0.219431 0.067236 -0.425764 -0.003911 -0.990975 -0.660041 0.101555 -0.115782 0.148874 -0.405233 0.022908 -0.052074 -0.562376 -0.583232 0.087751 -0.071811 0.424538 0.221811 0.230321 0.254860 -0.025690 -0.024351 0.397258 -0.005700 0.173851 0.334178 0.033768 0.220859 0.491881 -0.072703 -0.317580 -0.168340 -0.446755 -0.086271 0.175542 0.227366 0.472660 0.361648 -0.011097 0.264230 0.037644 -0.338064 -0.348311 -0.070411 0.037903 0.184945 0.138798 0.969202 0.367728 -0.394056 0.169370 -0.067896 -0.046682 0.235744 -0.309548 0.059408 -0.149116 0.118915 -0.273823 -0.207525 -0.627044 0.767098 0.118279 -0.040073 -0.020204 -0.514735 -0.081749 -0.263533 -0.167847 0.121553 0.149426 0.333825 -0.308979 -0.156320 -0.274723 0.006947 -0.002445 -0.283421 -0.170710 0.208593 -0.266690 0.334635 -0.179119
a16819 0.008890 0.523364 -1.103783 -0.363392 0.479430 0.350951 -0.747408 -0.197132 0.399596 0.753310 -0.508514 -0.232273 -0.109309 -0.571692 0.014382 -0.058168 0.034336 -0.106517 0.556657 -0.112139 -0.447922 -0.438286 -0.504287 0.196993 -0.802179 0.258600 -0.201807 0.391519 0.982822 -0.042550 0.090893 -0.351780 0.675037 -0.099790 0.006681 -0.205039 0.108564 0.093611 0.067036 0.824542 0.256833 0.037529 0.122976 0.517694 0.145016 0.048134 0.088669 -1.011279 0.188698 -0.046460 -0.142475 0.207922 -0.179876 0.256088 -0.109097 -0.215858 0.020448 0.263563 -0.152126 -0.405704 -0.140283 0.017066 -0.213611 -0.020227 -0.629973 0.278127 -0.410129 0.088624 -0.142696 0.414067 -0.228658 -0.532153 -0.009155 0.383349 0.284780 -0.374235 -0.258018 -0.368073 -0.662231 0.039527 0.087948 0.098542 0.926549 0.373368 0.085274 -0.155260 -0.419661 0.366388 -0.308753 -0.007203 -0.078789 0.613299 0.334199 0.211685 -0.150872 -0.411699 0.001429 -0.199607 -0.284681 -0.281784 0.442996 0.343379 -0.217404 0.214540 0.145012 0.164436 -0.119468 0.243635 -0.160926 0.121840 -0.319039 0.034187 -0.498319 -0.095875 -0.015259 0.145019 -0.478691 -0.542296 0.343584 -0.316338 0.204073 0.321814 -0.213431 -0.274533 0.574754 -0.547682 -0.022009 -0.147584
a6334 -0.126470 -0.088294 -0.147589 0.426109 0.721231 0.244870 0.243505 0.097587 0.240200 0.041771 0.141155 0.343947 0.570156 -0.005525 0.959857 0.238867 -0.305552 0.009693 0.080645 -0.121492 -0.097296 -0.408926 0.060581 0.555141 -0.092061 0.018570 0.080021 0.085823 -0.157178 0.507566 0.535695 0.465040 -0.215224 0.182641 0.203578 -0.232931 0.531272 -0.156927 0.036477 0.193088 0.289671 -0.130927 0.416126 0.753167 0.078360 -0.015737 -0.137179 -0.032493 -0.388559 -0.220300 -0.004086 -0.078571 0.030358 0.464216 -0.092555 -0.045290 -0.075805 -0.067957 0.004710 0.341911 0.076074 -0.052845 0.168346 0.299966 -0.224337 0.141935 0.075357 0.030495 -0.303237 0.169146 -0.284134 -0.211044 -0.043871 -0.078569 0.460980 -0.232401 -0.183215 0.388946 -0.498229 0.441715 0.481113 -0.347569 0.120488 0.545976 -0.417480 0.442452 -0.233188 -0.081651 -0.107869 0.137045 0.064618 0.206690 -0.041601 0.593814 -0.441093 0.207431 0.275361 0.065818 0.063730 -0.159755 0.251223 -0.030548 0.126766 0.168451 -0.548691 -0.203469 -0.298628 0.270894 0.129924 0.195316 -0.285780 0.110142 -0.595445 -0.082190 0.294272 -0.001460 0.492420 0.022592 -0.305414 -0.265131 0.328134 0.146818 -0.039752 -0.369032 0.120415 -0.330543 -0.017434 0.193511
a210871 -0.086079 -0.117251 -0.062321 0.525184 0.604815 0.089141 -0.226961 0.059001 0.061671 -0.177816 -0.507688 0.235333 0.168934 -0.593285 0.106704 -0.006297 -0.007946 -0.261929 0.553189 -0.357816 0.212545 -0.452156 -0.171633 0.461919 0.115086 -0.239604 0.098056 0.049142 0.262871 0.624948 0.145485 -0.314732 -0.012916 0.366385 0.467723 -0.360101 0.418144 0.333465 0.068309 0.125103 0.039209 -0.739859 -0.155859 0.368842 -0.283903 -0.089437 -0.147063 -0.044138 0.027770 -0.067518 -0.415420 -0.062318 0.011516 0.172431 -0.150653 -0.184609 -0.127971 -0.227836 -0.037752 0.049285 -0.119422 0.550162 0.020958 -0.311963 -0.040789 -0.112272 0.282712 0.104270 0.173492 0.068423 0.090481 -0.032651 0.296018 0.176419 -0.251867 0.064841 -0.073998 -0.604309 -0.116814 -0.070884 -0.160511 0.081034 0.233598 -0.129857 -0.104406 0.211935 -0.525972 -0.221219 0.013707 -0.338464 0.329153 0.641861 0.589495 0.256200 0.004029 0.038418 0.080607 0.292156 0.054433 0.069532 -0.276074 0.235011 -0.002681 0.002024 0.080863 -0.296254 0.238056 -0.059921 -0.203693 0.519853 -0.775284 -0.071659 0.143473 0.037593 -0.035111 -0.376218 0.820427 -0.269519 -0.016834 -0.601123 0.263210 0.165190 -0.204665 -0.329256 -0.069845 0.319785 0.162057 -0.101827
a35061 -0.282045 -0.245673 0.079145 0.430811 0.688615 -0.151378 0.044343 -0.170744 0.210606 -0.010677 -0.335172 0.510573 -0.144154 -0.418819 0.374100 0.188244 -0.192162 0.053260 0.317000 -0.294277 0.306851 -0.714343 -0.519155 0.339259 0.139249 -0.003253 -0.004075 0.001315 0.507813 0.440497 0.108879 0.075848 0.134631 0.121607 0.091565 -0.095698 0.107817 -0.002500 0.086361 -0.327239 -0.328233 -0.650348 -0.245783 0.256373 -0.040357 -0.377921 -0.271193 -0.231850 0.314246 -0.205129 -0.139545 0.206141 -0.029561 0.252897 -0.503954 0.114033 -0.045167 0.079387 -0.181685 -0.168352 0.102673 0.861082 0.478466 0.055831 0.381379 -0.095894 0.260195 0.228130 0.113070 0.061113 0.327076 -0.101763 -0.064543 0.215367 -0.136217 0.214994 -0.389662 -0.497097 -0.236104 -0.045371 0.236958 0.237586 0.470224 -0.040507 0.249033 0.146629 -0.546718 -0.255867 0.199258 -0.175850 0.285405 0.533337 0.596613 0.288758 -0.063567 -0.194825 -0.055103 0.372120 -0.052058 -0.267421 -0.167968 0.248728 0.276054 -0.111631 0.068999 -0.238947 0.334440 -0.025341 -0.264738 0.242296 -0.111072 0.282293 0.152756 -0.241268 -0.244342 -0.465296 0.104325 -0.335310 -0.110211 -0.384446 0.016224 0.340961 -0.423018 -0.165999 0.061911 -0.248196 0.655048 0.042042
a5348 0.157691 0.427991 -0.298580 -0.046453 0.365400 0.384879 -0.127349 0.259995 0.283698 0.421670 -0.748217 0.364282 0.284948 -0.047378 -0.207155 -0.212022 -0.208717 0.155770 0.233724 0.114059 0.392789 -0.227786 -0.272529 -0.046504 -0.127310 -0.008385 -0.365208 0.229454 0.342876 -0.295722 0.059150 -0.043919 0.189729 -0.069437 -0.203541 -0.209719 -0.102466 -0.121423 0.161923 0.172674 0.375124 0.136453 -0.018287 0.398113 0.127749 -0.477556 0.173626 -0.516148 -0.116861 -0.314674 -0.377614 0.070705 -0.237088 0.142291 -0.460040 -0.017691 -0.195780 -0.311181 0.386458 -0.258917 -0.241007 0.830036 -0.123026 0.473063 0.251570 0.486318 -0.224272 0.491315 0.688637 0.594920 -0.269215 -0.044138 0.307564 0.309756 0.334668 0.324834 -0.336029 -0.026900 0.038934 0.259177 0.265805 0.173343 0.207546 0.209597 0.052484 -0.198846 -0.228120 0.456209 -1.155015 0.022924 1.032113 -0.356391 0.324420 0.086019 -0.322689 0.100644 -0.103545 0.286166 0.172959 -0.143285 0.169212 -0.009194 -0.227905 0.003704 -0.100826 0.040032 -0.215240 0.431113 -0.243506 -0.003901 0.258313 0.092914 -0.774392 -0.319041 0.188756 -1.141139 0.430955 -0.389580 0.362681 0.111111 -0.430560 0.752048 -0.302585 -0.284492 0.094486 -0.193198 0.125887 -0.051830
a39127 0.198733 -0.053432 0.273525 0.152339 0.361767 -0.132830 0.318421 0.188389 0.381911 0.184451 0.212414 0.067313 0.310425 0.099863 0.558489 0.315500 -0.505406 -0.476156 0.361551 0.006134 0.172237 0.222425 0.300897 0.268128 -0.462057 -0.442081 0.126817 0.359732 0.535566 0.271458 0.798208 0.205420 -0.260598 0.186667 0.064961 -0.487214 0.442032 -0.265378 0.362844 0.444306 0.551614 -0.188966 0.127042 0.739141 -0.079911 -0.166243 -0.273155 -0.554886 -0.224207 0.018252 0.019398 -0.527254 0.238619 0.215980 -0.214605 0.361606 -0.117009 0.595947 -0.533928 -0.504256 -0.004245 -0.128618 -0.340711 0.414237 -0.262144 -0.009576 0.335634 0.447151 -0.167580 0.474723 -0.181333 -0.527935 0.385525 0.171926 0.233436 0.179513 -0.909121 0.161635 -0.425848 0.270229 -0.172783 -0.345693 0.190921 0.729844 0.014556 0.226458 -0.471099 0.252509 -0.244444 -0.015969 0.249432 -0.210462 -0.060206 0.631705 -0.340989 0.054951 0.063294 0.341359 0.056200 -0.246820 -0.176270 0.036811 -0.074924 -0.186552 -0.335200 -0.262833 -0.206261 0.122849 0.425448 0.244412 0.055945 0.112413 -0.489760 -0.105210 0.339733 -0.113125 0.305391 0.110734 -0.128372 -0.353460 -0.366088 0.164237 -0.184046 -0.623032 0.064998 -0.376054 -0.033326 0.069435
a3218 -0.180605 0.200343 0.392714 -0.133411 0.284544 -0.149131 -0.174393 0.287058 0.106181 0.206705 -0.154482 0.162960 -0.047269 0.059691 0.255708 0.094129 -0.297145 0.126031 -0.006662 0.460918 0.464979 -0.096405 0.044289 0.165624 -0.887027 -0.088206 -0.108520 0.380972 0.471242 0.172279 0.872102 0.305800 0.038806 0.164461 -0.025087 -0.247621 0.642513 -0.329287 -0.021669 0.489678 0.412857 -0.512782 0.264184 0.749296 -0.150847 -0.031816 -0.248980 -0.378810 0.154579 -0.240913 -0.359319 -0.240710 0.702921 0.202360 0.435026 0.191016 0.132052 0.778512 -0.114784 -0.155083 0.010313 0.026162 -0.445100 0.194823 -0.210123 -0.029285 -0.180167 0.094359 0.135756 0.341697 -0.024017 -0.349954 0.074407 0.346600 0.216797 0.222476 -0.329818 0.232520 -0.119890 0.040187 0.055553 -0.451932 0.074689 0.735875 -0.225615 0.101609 -0.572833 0.239602 -0.124319 -0.041094 -0.252311 0.238891 -0.571789 0.577621 -0.393035 0.335766 0.014636 0.333420 0.227120 -0.222499 -0.087539 -0.047030 0.103844 0.151763 -0.251751 -0.196308 0.087405 -0.096769 0.340782 0.105683 -0.265836 0.057365 -0.098084 -0.024871 0.359301 -0.416770 0.359076 -0.041671 -0.322367 -0.437751 0.124969 0.761408 -0.184393 -0.659985 0.008633 -0.140515 0.130092 0.316739
a54129 -0.654880 0.238996 -0.599536 0.473228 0.660696 0.158426 0.232859 -0.329497 0.326882 -0.140894 -0.463328 0.210781 0.350079 -0.394317 0.461090 0.214861 0.148758 0.074979 0.457620 -0.286050 0.230735 -0.282359 -0.442588 0.658853 -0.078777 0.347946 -0.119019 0.159806 0.508014 0.297581 0.353087 -0.545425 0.228261 0.475736 0.019264 -0.369333 0.478762 0.107544 0.028171 0.030696 0.070917 -0.317994 -0.108009 -0.177752 -0.390561 -0.122588 0.396267 -0.333028 0.393338 -0.321289 -0.214535 0.151266 -0.347478 0.159962 -0.444055 -0.096518 -0.121772 -0.330014 -0.228468 -0.461853 0.333027 0.111654 0.333064 0.069593 0.010710 0.176788 0.242573 0.306394 -0.230555 -0.468744 0.012366 -0.206626 0.344128 0.125408 -0.204765 -0.496912 0.515474 0.068480 -0.420353 0.254241 0.084615 0.120635 0.277049 0.148627 -0.084546 0.075379 -0.705059 0.510369 0.061547 -0.083793 0.286071 0.313712 0.435884 0.425015 -0.246118 0.079374 0.488302 0.272389 0.282039 -0.103467 0.101287 0.198947 -0.182073 -0.443752 0.128316 -0.460065 0.026561 0.215899 0.036926 0.483775 -0.484784 -0.425418 0.013193 -0.089500 -0.131678 -0.200205 0.647484 0.390757 -0.235155 -0.339909 0.050238 0.292075 -0.235728 -0.539695 0.186986 -0.350454 0.192022 -0.005784
a54131 -0.547817 0.024296 -0.117863 0.521206 0.840119 0.433947 -0.006126 0.014104 0.249136 -0.108959 -0.489610 0.079692 0.249460 -0.191429 0.450382 0.188925 -0.262546 -0.558313 0.619503 0.063780 0.184704 -0.318986 -0.175579 0.518255 0.109979 -0.041727 -0.079952 0.261737 0.433832 0.310276 0.192809 -0.192137 -0.097928 -0.044732 0.126542 -0.330792 0.388574 0.173542 0.201138 -0.024798 -0.162879 -0.483141 -0.452355 0.055861 -0.158519 -0.107356 0.046024 -0.178840 0.145904 -0.152415 -0.340642 0.163707 -0.538126 0.555712 -0.578246 0.034806 -0.355275 -0.518452 -0.055508 -0.216096 0.110806 0.612614 0.192856 -0.136473 0.257645 -0.152443 0.320045 0.589885 -0.003264 0.404503 -0.064988 -0.297598 0.442025 0.176385 -0.273871 -0.370281 -0.094700 0.118845 0.160164 0.156025 0.225162 0.255166 0.143597 0.031851 -0.173963 0.089913 -0.301960 -0.098321 0.127030 -0.099984 0.169981 0.237380 0.346567 0.492568 -0.211459 -0.133093 0.297811 0.345351 0.061291 -0.135016 -0.112319 0.226020 -0.046735 -0.279016 0.103361 -0.400340 0.225656 -0.083759 -0.729223 0.210236 -0.471943 0.260196 -0.258412 -0.216276 0.095027 -0.363126 0.520962 -0.274635 0.372433 -0.529913 -0.052189 0.160776 -0.117505 -0.489723 0.230908 0.037021 0.029891 -0.331170
a34257 -0.456677 -0.155206 -0.843287 -0.207457 0.288643 0.380337 -0.324698 0.091420 0.199187 0.653246 -0.605901 0.030509 0.249828 -0.278918 0.183728 0.165236 0.196747 -0.553786 0.576260 -0.111309 -0.108819 -0.646190 -0.435380 -0.292669 -0.624709 -0.128319 0.243659 0.257229 0.686112 0.269357 0.366364 0.101959 0.003499 -0.217097 -0.374210 0.154101 0.395284 -0.469158 0.046118 -0.073173 0.369128 -0.466907 0.167146 0.706448 -0.170168 -0.202828 -0.352271 -0.380505 0.077573 -0.300730 -0.584094 -0.248471 0.459154 -0.074094 -0.145822 1.008313 0.048735 0.639446 0.232624 -0.010390 0.152724 0.142883 -0.494788 0.526008 0.475824 0.057167 -0.111235 0.726746 -0.103261 -0.245032 0.315204 0.124840 0.373118 0.119072 0.327893 -0.372496 -0.209097 -0.274108 -0.765075 -0.218984 -0.358046 0.341918 0.036140 0.146177 -0.459408 -0.176108 -0.171103 -0.185635 -0.710120 0.136160 0.248834 0.002031 0.050490 0.541551 -0.690626 0.291908 -0.049353 0.313820 0.143760 0.140734 -0.382142 0.229492 0.122531 0.154437 -0.823069 0.272420 -0.167830 -0.080310 0.280428 0.667383 -0.254829 0.139796 -0.610631 -0.360328 0.442246 -0.899547 0.491472 -0.621088 0.232533 0.280874 0.110989 0.486997 -0.135057 -0.133496 0.434993 -0.255117 0.019347 0.039553
a10177 -0.184923 0.095737 -0.446713 -0.010254 0.429876 0.086998 0.338667 0.575504 0.405009 0.229420 0.191938 0.628591 0.158739 0.015694 0.498338 -0.180074 0.113007 0.221168 0.420775 0.172690 0.506411 -0.011662 -0.066353 0.328392 -0.349175 0.111589 0.138130 0.410782 -0.181146 0.347848 0.343643 0.083519 0.260534 -0.115491 -0.209532 0.142959 0.701578 -0.118574 0.198678 0.039805 -0.021411 0.136541 0.045596 1.195839 0.355944 -0.417561 -0.051361 -0.158991 -0.169510 -0.585420 0.047694 0.098415 0.035165 -0.193974 -0.322162 -0.163191 0.112846 0.295393 -0.024525 0.111143 0.173411 -0.040621 -0.052980 -0.173429 -0.411630 0.153182 0.539280 -0.386888 0.084798 0.245345 0.046298 -0.341888 -0.020772 0.099021 0.321504 -0.068729 -0.215340 0.429631 -0.742029 -0.407937 0.003310 -0.212744 0.122701 0.293311 -0.053398 -0.104919 -0.440562 -0.146643 0.144760 0.289253 0.217665 0.195796 0.320732 -0.007717 -0.281358 0.045163 -0.346063 -0.264703 0.027263 0.229649 -0.085178 0.295262 0.565425 -0.052126 -0.517745 0.081865 -0.427612 0.574751 0.354972 0.187407 -0.362694 0.051032 -0.390305 -0.155998 0.255849 -0.351751 0.638255 -0.236434 0.073164 -0.140227 -0.146305 0.220415 0.112003 -0.478278 0.202387 -0.717029 -0.092992 0.021691
a35797 -0.178358 0.590062 0.064851 -0.018381 0.238211 0.078775 0.147818 0.105799 0.437477 0.064889 -0.318871 -0.191955 -0.007499 -0.504266 0.262935 0.156490 -0.084134 0.036855 0.200132 -0.067725 -0.050422 -0.208145 -0.237049 0.600411 -0.414289 -0.059395 0.457409 0.171137 0.100283 -0.040036 0.005490 0.461920 0.368021 0.552011 0.011195 -0.106739 -0.256866 -0.295000 -0.189824 0.376311 -0.184974 0.252114 0.124510 0.087011 0.032304 -0.333894 -0.374070 0.005473 0.035106 -0.337841 -0.241677 0.212617 -0.114458 0.540088 -0.815892 -0.275822 0.050077 -0.318917 -0.176144 0.006055 0.025547 0.710636 0.184234 0.307155 -0.130685 0.249992 -0.411000 0.154225 0.086524 0.497282 0.107558 0.123381 0.033688 0.043935 0.145819 0.183946 -0.161839 0.056146 0.069713 0.308797 0.028338 0.192976 0.142856 0.015568 0.168743 0.095401 -0.401524 0.035296 -0.800211 0.241381 0.509515 0.017380 0.183633 0.348914 -0.705514 -0.193404 -0.157690 0.252442 0.116521 0.052379 0.249274 0.032072 -0.258217 -0.300166 -0.337545 -0.185559 0.213648 0.047099 0.179711 -0.135437 0.022177 -0.117777 -0.451284 -0.306663 0.269543 -0.790314 -0.064553 -0.350956 -0.502897 -0.029634 -0.046462 0.698600 -0.594002 0.040320 -0.178649 0.164935 -0.047343 -0.089278
a6910 -0.349735 0.109790 -0.571013 -0.288337 0.269255 -0.298433 -0.885702 -0.058321 0.177003 0.049080 -0.398268 0.040762 0.417539 -0.648467 0.358034 0.370519 -0.060080 0.024543 0.476041 -0.259479 -0.509036 -0.172894 -0.580794 0.426669 -0.435715 0.056711 -0.206254 0.205011 0.378738 -0.170346 0.565794 0.412085 0.119269 -0.095063 -0.056007 -0.174380 -0.328248 0.437352 0.004237 0.304734 0.358134 0.183838 0.232993 0.314347 0.058613 -0.513939 -0.204655 -0.890141 -0.080472 -0.365792 -0.127951 -0.316204 -0.353706 0.347721 -0.514509 -0.181258 -0.011248 0.005622 0.444402 -0.146958 0.131353 0.426762 -0.051936 0.199564 -0.496343 0.257014 0.001745 -0.063848 1.064623 0.346203 0.302436 -0.737530 0.243257 -0.147656 0.594951 0.006084 -0.887067 -0.222072 -0.218248 0.016759 -0.114734 -0.228197 0.636641 0.337621 0.045513 0.209442 -0.353869 0.571639 0.093126 -0.248813 0.019069 0.377887 0.327578 0.335990 -0.021617 -0.715052 -0.404422 -0.086246 -0.393057 0.297243 0.493630 0.312543 0.041246 -0.255658 -0.075716 0.146429 -0.287163 0.196329 -0.035365 0.055254 0.190060 -0.138861 0.014112 0.019361 -0.127556 -0.485603 -0.021847 -0.160045 0.232843 -0.465076 -0.111496 0.266989 -0.024280 0.069945 0.433768 -0.276210 -0.211593 -0.437976
a2654 -0.377697 -0.262973 -0.172798 0.107835 0.588079 -0.144574 -0.146000 -0.170506 0.378401 0.141602 0.239782 0.132763 -0.034321 -0.175456 -0.065647 0.475032 -0.311743 -0.043099 0.499485 0.508432 0.033920 -0.328347 -0.390026 0.292790 -0.761389 -0.068156 -0.024492 0.363445 -0.122605 0.154452 0.856480 0.147326 0.343206 0.074803 0.044615 0.099812 0.357600 0.287472 -0.217278 0.100763 0.133226 0.203982 0.541499 0.466440 -0.017602 -0.595587 -0.021394 -0.044136 -0.026186 -0.467355 0.436775 -0.260770 0.357928 0.055616 -0.686666 0.153801 -0.168451 -0.042945 0.127444 0.214435 0.073862 0.341214 -0.229696 0.229207 -0.561736 0.002048 0.089844 0.136821 -0.265199 0.227324 0.204282 -0.293891 0.506682 0.016055 0.312889 0.117694 -0.585584 0.076047 -0.275466 0.563155 0.173895 -0.726554 0.168809 0.330486 -0.047307 0.373982 0.075512 -0.273255 0.142514 -0.187743 0.071618 -0.672250 -0.060460 0.245027 -0.558863 -0.423925 0.018725 -0.111585 -0.036346 -0.239626 0.491657 0.048787 -0.134148 0.277371 0.119139 -0.525315 -0.018447 0.191538 0.489976 0.439686 -0.257356 0.017386 -0.559489 -0.467629 -0.126426 -0.134724 0.131156 0.210602 0.327399 -0.223471 0.014386 0.509745 -0.371421 -0.104045 -0.089984 0.072283 -0.310536 -0.198773
a38205 -0.272957 0.278156 -0.491371 0.186661 0.326685 0.089699 0.037855 -0.079158 0.009856 -0.317631 -0.293429 0.484281 0.022686 -0.351366 0.312023 0.166301 0.039348 -0.109896 0.449953 -0.615300 0.194174 -0.506292 -0.600425 0.371177 -0.183295 0.097994 0.064476 0.257567 0.314489 0.949938 0.184911 -0.415025 0.087238 0.491828 0.446043 -0.288741 0.358749 0.035555 -0.358479 0.101581 0.175399 -0.518116 0.041949 0.059990 -0.079535 -0.194420 0.296611 -0.169310 0.118080 -0.221087 -0.194520 -0.042271 -0.060734 0.058006 -0.304407 0.036247 -0.131606 -0.503052 -0.109257 0.086462 0.305186 0.426860 -0.043386 -0.185014 -0.163571 0.210418 0.445992 0.013543 0.105727 -0.005507 0.138948 0.183195 0.204041 0.181180 -0.403632 -0.112081 0.101053 -0.610091 -0.416046 -0.188286 -0.084042 0.349172 0.442288 0.143742 -0.224832 0.263223 -0.381874 -0.217978 0.067822 -0.044419 0.278298 0.466542 0.584566 0.106744 0.161230 0.060230 0.328982 0.510527 0.407129 -0.096643 -0.247618 -0.191540 -0.113022 -0.172787 -0.032402 -0.233042 0.211553 0.194115 0.096457 0.553963 -0.527245 -0.068678 -0.095694 -0.112599 0.029984 -0.008481 0.405221 0.021599 0.222837 -0.527078 0.093539 0.262262 -0.334950 -0.285761 -0.003745 -0.033028 0.456470 -0.167165
a28350 0.146302 0.165408 -0.878027 0.452018 0.444173 -0.025535 -0.247389 0.367679 0.173810 -0.179605 -0.193569 0.729497 -0.170261 -0.310116 0.279991 -0.039363 0.185484 -0.064009 0.368509 -0.276502 0.357939 -0.376993 -0.285045 0.198369 -0.502490 -0.162990 0.049303 0.076192 0.247725 0.118903 0.002353 -0.184681 -0.201815 -0.202354 0.236001 -0.008547 0.136772 -0.027523 0.307770 0.198588 0.588708 0.110584 0.336666 0.105482 0.054697 -0.369152 -0.121310 -0.551120 0.397613 0.085248 -0.118694 -0.092318 0.133076 0.283163 0.057301 0.153374 0.115021 0.290729 0.198169 -0.389125 0.106964 0.183795 0.172202 0.378618 -0.040775 0.373613 0.261503 0.086838 0.147465 0.359227 -0.041407 0.147947 0.201080 -0.045301 0.158458 0.189279 -0.201046 -0.021646 -0.224380 -0.015625 -0.366259 0.294420 -0.075428 0.114406 -0.068438 0.274090 -1.017095 0.232080 -0.302953 -0.137668 0.161210 0.358774 -0.038653 -0.274750 -0.374272 0.151911 0.447887 0.233113 0.426727 0.271253 -0.328878 0.202043 -0.112108 0.191294 -0.381011 0.316103 0.362740 0.547031 -0.169050 0.650769 -0.514002 -0.266887 0.352629 -0.118631 0.055319 0.083209 -0.062026 0.038635 0.779667 0.119313 -0.337853 0.404853 -0.671798 -0.081702 -0.122347 -0.169312 0.295141 -0.275253
a65074 -0.114063 0.355990 -0.365508 -0.116492 0.284757 -0.095346 -0.819574 0.580663 0.012433 0.278078 -0.050918 0.224347 -0.394865 -0.355461 0.295821 -0.387778 0.219129 0.193682 1.023092 -0.130209 0.295023 -0.078679 -0.255778 0.853095 -0.040611 -0.011942 0.217731 0.848499 0.468263 0.428141 1.064192 -0.458209 -0.240523 -0.295623 -0.077480 0.315552 -0.067452 -0.226960 -0.103423 0.291888 0.239976 -1.176453 -0.349900 0.407845 -0.162396 -0.946135 0.028386 -0.429863 0.110992 -0.084731 -0.048972 0.300060 -0.072600 -0.473224 -0.262042 0.111597 -0.685041 -0.023535 -0.492597 -0.565687 0.224677 0.395809 -0.066057 -0.128109 -0.097438 0.221175 0.093303 0.206946 0.277505 0.464947 -0.091715 -0.289390 0.220071 0.018181 0.683958 -0.463480 -0.621955 0.052369 -0.534445 -0.436916 -0.051335 -0.191387 0.657931 0.480104 -0.419533 -0.265196 0.135590 0.548411 -0.548690 0.119214 0.317394 0.122845 0.262325 0.340681 0.111271 0.106945 -0.074356 -0.387589 0.025060 -0.267402 0.265706 -0.522443 -0.302549 -0.010410 0.299443 -0.212766 0.461057 -0.034548 -0.211622 1.032131 0.223097 0.073068 -0.358918 0.794000 -0.501883 -0.749834 -0.138126 -0.072017 0.133536 -0.171874 -0.087693 0.442027 -0.730433 -0.087765 0.310036 -0.525712 -0.341178 -0.202417
a31489 -0.101216 0.085587 -0.419160 -0.362804 0.705313 -0.144734 -0.608208 0.235250 0.182188 -0.117344 -0.480824 0.296672 0.345193 -0.376844 -0.143848 0.420551 -0.093871 0.317127 0.476061 -0.145545 -0.263674 -0.009620 -0.521011 0.417472 -0.546585 0.621360 -0.410366 0.331106 0.197104 -0.474458 0.400516 0.102392 -0.415039 0.003486 -0.058173 -0.593434 -0.089336 0.385258 0.157988 0.122214 0.428132 0.178225 0.123100 0.304408 -0.268632 -0.632135 -0.133992 -0.986483 -0.325816 -0.546157 0.202458 -0.558851 -0.253673 0.153729 -0.246113 -0.232336 0.300875 0.047863 0.073005 -0.332394 -0.192399 0.811240 0.064908 0.584953 -0.092697 0.252580 -0.139617 0.161914 1.155501 0.097681 0.081804 -0.621080 0.072813 0.212730 0.717761 -0.119546 -0.694846 -0.177273 0.097345 -0.136997 0.140410 -0.239345 0.194615 0.500645 -0.060776 -0.157105 -0.287298 0.576016 -0.069937 -0.102965 0.129841 0.522562 0.569997 0.485021 0.257818 -0.442457 -0.536672 0.177368 -0.341427 0.283601 0.283191 0.318940 -0.359605 -0.140578 -0.175985 -0.067483 -0.329207 0.708985 -0.129061 0.290221 -0.029019 0.095874 -0.165239 -0.064074 0.217018 -0.973165 0.178882 0.043358 0.177880 -0.581626 -0.399989 0.493845 -0.072283 -0.166389 0.551818 0.000861 -0.338076 -0.062394
a18777 -0.341353 0.429864 -0.253253 -0.027707 -0.402972 0.276563 -0.511359 0.222536 -0.144463 0.217884 0.084403 0.137918 0.104058 -0.143494 0.174104 -0.251320 0.375369 0.399626 0.294568 0.045513 0.247509 -0.234316 -0.656178 0.452619 -0.765445 -0.342766 0.141558 0.557426 0.143610 0.430774 0.296218 0.081629 0.605240 0.353745 -0.137187 -0.114755 0.112665 0.078660 -0.448854 0.277795 0.257069 -0.206913 0.031251 0.620008 0.033289 -0.357853 0.494939 -0.061999 0.528534 0.031782 -0.227090 -0.123017 0.407307 -0.103719 0.414874 0.010729 -0.028593 0.074868 0.200443 -0.448428 -0.402447 0.070253 -0.008954 0.295334 -0.290558 0.168699 0.275510 0.008042 -0.077343 0.380041 0.213158 -0.404010 0.335484 -0.190852 0.304772 0.385180 -0.146751 0.223474 -0.427613 0.327845 -0.499630 -0.011410 -0.239369 0.886148 -0.362630 -0.010791 -0.592445 0.006114 -0.501046 -0.196227 -0.279982 0.458284 -0.058269 -0.120771 -0.578569 0.197746 -0.112215 -0.201826 0.297520 -0.119830 -0.106313 0.174569 -0.273222 -0.171986 -0.260782 -0.231842 -0.105571 0.059302 -0.253471 0.105254 0.039574 0.237047 0.321481 -0.433460 0.103125 -0.050346 -0.331503 0.088697 0.459895 -0.066337 0.367616 0.371150 -0.100217 -0.039043 -0.101872 -0.524559 -0.208132 -0.370225
a89547 -0.055398 -0.104108 -0.677458 0.409843 0.653442 -0.283048 0.161044 -0.086352 0.361042 -0.039642 0.273893 0.939779 -0.078761 0.016373 0.403230 0.007505 0.263976 0.114094 0.625365 -0.111957 0.240712 0.072856 0.169873 0.512652 -0.364078 -0.024369 0.127895 -0.014477 0.150620 0.506250 0.267865 0.201516 -0.169627 -0.049234 -0.365865 -0.023698 0.113455 0.145613 0.343467 -0.277730 -0.146143 -0.517972 0.065010 0.380760 0.137654 -0.601457 0.337013 0.319070 0.072957 -0.204819 -0.100589 -0.169973 0.207636 0.187361 -0.580702 0.081010 -0.087506 0.693378 -0.252962 -0.298224 -0.437809 0.247713 -0.037230 0.105342 -0.046434 0.399869 -0.043732 -0.023801 0.028563 0.332581 0.310011 0.111513 -0.037317 -0.118825 0.606745 0.022118 0.059656 0.281974 -0.334963 0.056105 0.255503 -0.328976 -0.072356 0.144236 -0.376153 0.077467 -0.749777 -0.630640 0.030913 -0.417552 0.287384 0.181782 0.719543 -0.324031 -0.460479 0.019986 0.030288 0.034207 0.200762 0.053253 -0.118105 0.163387 0.149862 0.276953 -0.262569 0.187657 0.035620 0.423673 0.572622 -0.188878 -0.167715 -0.229683 0.150738 -0.546353 -0.011403 -0.264142 0.345864 -0.089589 0.392227 -0.066821 0.035913 0.660179 -0.067914 -0.326991 -0.016709 -0.349072 0.048535 -0.195063
a5086 -0.191581 0.336817 -0.233750 -0.669644 0.119490 0.464840 -1.199614 -0.217259 0.233676 0.298846 -0.071249 -0.003148 -0.150402 -0.330321 0.193561 -0.176809 0.046363 -0.082008 0.797455 0.149117 0.543001 -0.078926 -0.655266 0.468225 -0.303086 -0.242778 0.442159 0.611035 0.470582 0.201205 0.015974 -0.039566 0.294318 0.147661 -0.333369 -0.188066 -0.194559 0.053635 -0.057713 0.669919 0.462062 0.057855 0.145260 0.384210 0.031404 -0.530708 0.094030 -0.095155 0.032477 -0.167715 -0.134572 0.089431 0.065683 0.023212 -0.253889 -0.024521 -0.476088 -0.162115 -0.056260 -0.135692 -0.228665 0.222967 0.052244 0.014618 -0.788972 -0.022930 -0.293621 -0.141616 -0.431588 0.128741 0.381940 -0.647735 0.430114 -0.013019 0.843803 -0.318364 -0.204866 0.170966 -0.328629 0.231338 0.355764 0.109843 0.277616 0.489140 0.210122 -0.549961 -0.398087 -0.203872 -0.651972 -0.066604 -0.029055 0.026914 0.485906 0.577499 -0.198966 -0.168416 0.417594 -0.477947 -0.200965 -0.261274 0.157334 0.156190 -0.130142 0.085455 -0.349911 -0.190101 -0.101202 -0.125438 -0.000876 0.241168 0.192647 0.351501 -0.437573 -0.114757 -0.361078 -0.103170 -0.067365 0.165634 0.185122 -0.106474 0.397638 0.511466 -0.225566 0.415239 -0.431388 -0.526160 -0.193120 -0.319729
a6913 -0.145477 0.481959 -0.669619 -0.300639 0.022286 0.057097 -0.395590 -0.216463 0.298052 0.000688 -0.171903 0.168326 -0.173681 -0.243236 0.372145 0.037454 0.288881 -0.205924 0.413765 -0.034450 -0.698373 0.027480 -0.339492 0.432302 -0.741450 -0.196678 -0.343460 0.113480 0.343954 0.047133 0.266615 0.337382 0.302605 0.212514 -0.153919 -0.175929 0.077508 -0.006997 0.045535 0.770940 0.201490 0.553097 0.074479 0.054284 0.253697 -0.446108 -0.250053 -0.629421 -0.043095 -0.107918 -0.092513 0.080732 -0.147169 0.568870 -0.680765 -0.525011 0.053653 -0.057111 0.039675 -0.107644 -0.022764 0.509921 -0.206313 -0.018361 -0.470712 0.327552 -0.105058 -0.096377 0.089859 0.626431 -0.079917 -0.642393 0.494413 0.128391 0.199846 0.011009 -0.355293 -0.171984 -0.540771 -0.005153 -0.037495 0.218454 0.501486 0.148127 -0.029136 0.076066 -0.316123 0.341772 -0.153382 0.152260 0.092233 0.325855 0.049839 0.136478 -0.468749 -0.378149 -0.134445 -0.263054 -0.123657 0.017382 0.297919 0.615310 -0.048286 -0.281388 -0.366626 0.140114 -0.355159 0.244185 -0.260504 -0.161410 0.016233 -0.061109 -0.133191 -0.304851 -0.251011 -0.454809 -0.483381 -0.185276 0.382439 -0.026988 0.157031 0.122319 -0.220145 0.001828 0.405280 -0.568449 -0.316239 -0.391389
a17476 -0.364889 0.304290 -0.431536 0.233191 0.034346 0.430513 0.079772 0.147236 0.112592 -0.261225 -0.386101 0.202950 -0.059849 -0.321271 0.053836 0.091198 0.756710 0.157634 0.278107 -0.036627 0.290452 -0.239566 -0.540801 0.393228 -0.437659 -0.319827 0.282507 0.149841 -0.099740 0.605423 -0.230993 -0.135267 0.296060 0.505126 -0.024029 -0.128553 0.244941 -0.026047 -0.091408 0.162465 0.358517 -0.445244 0.001290 0.026784 -0.369035 -0.348350 0.511798 -0.400922 -0.064228 -0.160234 -0.230255 0.061426 0.507385 0.053488 -0.079410 0.049953 -0.368356 -0.076412 -0.021753 -0.513498 0.123102 -0.024550 0.158244 0.236848 0.143512 0.511603 0.892804 0.201725 0.094727 0.190651 0.329109 0.103633 0.252618 0.093124 -0.204074 -0.047379 0.237533 -0.043930 -0.502115 0.208644 -0.262804 -0.013266 -0.223154 0.304739 -0.019472 -0.305967 -0.814887 0.499844 0.146053 0.029836 0.210336 0.333255 0.059065 0.154288 -0.076078 0.313980 0.163103 0.274819 0.486804 -0.022638 -0.105446 -0.138240 -0.356272 0.048536 -0.448429 -0.130185 -0.003068 0.076511 0.001144 0.742807 -0.253246 -0.169573 0.161990 -0.359333 0.023152 0.165529 0.290493 0.144226 0.145194 -0.031955 0.116231 0.194689 -0.490808 0.017571 -0.374515 -0.148422 0.238969 -0.506467
a1956 -0.498061 -0.123107 -0.057758 0.259474 0.936848 0.099982 -0.280564 -0.089377 0.232946 0.374073 -0.383453 0.156278 0.646391 -0.375888 0.228369 0.411219 -0.086673 -0.354889 0.143114 0.018860 0.109950 0.162688 0.127357 0.273966 -0.254161 0.160849 0.495258 0.098824 0.344249 0.284546 0.342335 -0.120761 -0.164997 0.004716 0.076273 -0.239023 0.354433 0.193201 0.615166 -0.278157 -0.286251 -0.460850 0.327539 0.017412 -0.275292 0.035376 -0.356189 0.038155 -0.373626 -0.669054 -0.536482 0.091288 0.101552 -0.538749 -0.374846 0.302218 0.129533 0.202828 -0.042217 -0.025921 0.203569 0.319571 0.094909 -0.332696 -0.471320 0.293887 0.124490 0.487597 -0.237889 -0.136604 -0.411532 -0.150235 0.607659 0.144359 -0.160080 -0.041821 -0.242073 -0.611118 -0.305415 0.444316 -0.091287 -0.265343 -0.145461 0.204302 0.068276 0.304879 -0.100013 0.000840 0.111322 0.040856 -0.014499 0.106766 0.215249 0.386036 -0.248606 0.211984 -0.078020 -0.007010 -0.084595 -0.179474 0.042100 -0.317355 0.007452 -0.359564 0.397160 -0.613620 -0.111027 0.098047 0.178054 0.397866 0.005825 -0.107289 0.173152 0.096864 0.113299 -0.113889 0.183521 -0.466255 -0.064625 -0.370833 0.252339 0.552047 -0.289019 -0.152320 -0.174307 -0.456382 0.174465 -0.248576
a20601 -0.406764 0.080746 -0.476532 0.169774 0.298410 0.005097 -0.082730 0.462257 0.613023 0.214794 0.013791 0.555111 -0.184901 -0.088149 0.329899 -0.182155 0.040003 0.135269 0.874034 0.252396 0.543010 -0.296334 0.028515 0.011551 -0.790265 0.161537 0.452944 0.551134 0.073647 0.040206 0.447930 0.145976 0.658013 0.149119 0.063191 0.223709 0.444994 0.060955 0.060774 0.110273 -0.104535 -0.152834 -0.142386 0.933576 -0.032200 -0.354386 -0.039219 -0.042841 0.154922 -0.569951 -0.255442 0.057437 0.011205 -0.551932 -0.233735 0.041917 -0.097212 0.189663 -0.208809 0.221113 -0.021269 0.232357 0.037134 0.235004 -0.478505 0.339915 0.723239 -0.162053 0.024268 -0.121057 0.088432 -0.123254 -0.155883 0.296264 0.505763 -0.018922 -0.069002 0.374721 -1.015404 -0.386245 -0.114502 -0.217735 0.320392 0.309368 -0.082614 -0.323073 0.003167 0.124147 0.283693 0.135413 0.139566 0.218506 0.625356 -0.029819 -0.430609 -0.003027 -0.386229 0.260028 -0.274266 -0.342873 0.170611 0.493040 0.455172 -0.123689 -0.452053 -0.203871 -0.306129 0.620282 0.163629 0.252919 -0.148581 -0.067517 -0.270043 -0.276735 0.421547 -0.512245 0.818467 0.130523 0.132375 0.181699 -0.249174 0.475015 0.078038 -0.383512 0.044532 -0.565223 -0.077935 0.185378
a3243 -0.237579 0.060840 -0.077328 0.130301 0.391888 -0.181880 -0.211111 0.014693 -0.153560 0.052048 -0.101791 0.139766 0.148383 0.116490 0.082737 0.510705 -0.073690 0.354606 0.022638 0.379940 0.382749 -0.064401 0.085225 0.373283 -0.701688 -0.120980 0.147286 0.397228 0.151718 -0.137340 0.195456 0.306790 0.258985 -0.076051 0.192066 0.018586 0.441478 -0.270252 0.326481 0.005987 0.645421 -0.115447 -0.059757 0.459971 0.035690 0.096690 0.166827 -0.027097 0.005407 -0.350811 -0.338550 0.279640 -0.037664 0.444299 -0.638152 -0.133217 0.143189 0.274793 0.137053 0.114813 -0.237438 -0.315654 0.141326 0.485568 -0.663836 0.697229 0.018655 0.200103 0.252073 -0.148631 -0.179499 0.206209 0.332682 -0.242663 0.269056 -0.227719 -0.035001 0.274422 -0.016187 0.179217 -0.168351 -0.466657 -0.007615 0.162883 -0.493699 0.218471 -0.425854 0.136137 0.086335 -0.506736 0.034713 -0.142139 0.225378 0.228288 -0.499438 -0.684314 -0.689349 -0.151179 0.099513 -0.091477 -0.173696 -0.039806 -0.470782 0.069875 -0.428805 -0.571790 0.206453 0.340466 0.432547 0.062524 -0.440540 -0.214523 -0.016363 -0.308506 0.075489 -0.216437 0.501277 -0.212624 0.350637 0.059331 -0.390455 0.328580 -0.733626 -0.090054 -0.245421 0.251319 0.341964 -0.508779
a36140 -0.028846 0.571652 -0.007601 0.069859 0.229158 -0.017766 -0.028996 0.157695 0.251994 -0.048223 -0.037989 -0.065812 -0.029132 -0.500813 0.459975 0.397288 -0.236081 0.036893 0.253819 0.321706 -0.077061 -0.015935 0.241661 0.179671 -0.545851 0.261431 0.210104 0.363606 0.070096 0.076797 -0.075977 0.418776 0.413210 0.271150 -0.101551 -0.131055 0.236227 0.026283 -0.135681 0.123182 0.239250 0.068020 0.332371 0.403579 0.215344 -0.332682 -0.458572 0.201539 0.117458 -0.375826 -0.246106 0.429319 0.288999 0.243588 -0.367276 -0.293168 -0.033172 0.246900 -0.365018 0.106481 0.068843 0.419043 -0.213858 0.622924 -0.484312 0.147476 -0.202433 0.477086 -0.180968 0.319620 -0.053073 0.002335 0.062247 0.008549 0.466105 0.456712 -0.199222 0.168502 0.021648 0.274712 0.189840 -0.271410 0.037707 0.097860 -0.128735 -0.041224 -0.443781 -0.355526 0.110046 -0.076907 0.045230 -0.047964 0.224948 0.360135 -0.703946 -0.449674 -0.096028 0.364783 0.035598 -0.324771 0.087135 0.343299 -0.355703 0.202063 -0.627707 -0.044822 -0.025960 0.174572 0.060729 0.103368 -0.520537 0.143214 -0.257921 -0.252172 0.192061 -0.501156 0.267275 -0.253926 -0.319349 0.312736 -0.199609 0.933528 -0.331382 -0.035061 -0.673764 0.217189 -0.308549 -0.141494
a41714 -0.398522 -0.135490 -0.255269 0.433665 0.593199 0.226907 0.193598 -0.393851 0.338325 0.084368 0.177400 -0.183265 0.063403 -0.610368 0.271507 0.072873 0.030432 -0.156872 0.508224 -0.020951 0.244911 -0.206951 -0.488378 0.494898 0.064538 -0.108538 0.195378 -0.165478 0.395006 0.445432 0.254564 -0.601317 0.174245 0.227064 0.226308 -0.196062 0.142456 0.057883 -0.045979 -0.227566 -0.118534 -0.716984 -0.076235 0.088860 -0.062544 0.067860 -0.227033 -0.284452 0.029909 -0.459205 -0.082654 -0.084833 0.061650 0.419360 -0.344189 0.463188 0.119563 -0.204898 -0.128123 0.029486 0.282170 0.224898 0.075976 -0.226960 0.052811 -0.011914 0.315149 0.252943 0.217523 0.327131 0.171755 0.066624 0.519150 0.495880 0.058664 0.141552 -0.287439 -0.261561 -0.442327 -0.165899 -0.047670 0.069928 0.263051 -0.110774 0.010459 -0.108154 -0.365214 -0.155877 -0.355941 0.151881 0.466563 0.660270 0.717236 0.243726 -0.184955 -0.143937 -0.006803 0.270460 0.208255 -0.809922 -0.261906 -0.091083 0.061173 -0.201033 0.233010 -0.498835 0.285630 0.158943 -0.113674 0.598852 -0.497661 -0.241342 0.184756 -0.212061 -0.019259 -0.569797 0.432387 -0.390978 -0.057252 -0.396446 0.208234 -0.042924 -0.525053 -0.109419 0.367194 -0.011448 0.483193 -0.173856
a22229 -0.330652 -0.130514 -0.399141 0.414650 0.589132 0.186199 0.089736 -0.187582 -0.197463 0.076607 -0.188112 0.127723 -0.209023 -0.493165 0.318131 0.564188 -0.053526 0.019637 0.670959 0.091050 0.691490 -0.419198 -0.496303 0.397120 -0.081239 -0.015406 0.196211 0.156788 0.343718 0.156200 0.463721 -0.340912 0.408049 0.150947 0.063416 -0.165853 0.386365 -0.005062 0.190384 -0.135874 -0.449380 -0.608002 -0.112142 0.011004 0.103270 -0.361545 -0.268175 -0.384945 0.386895 0.012711 -0.037789 0.433571 0.143056 0.215543 -0.488774 0.186582 -0.281898 -0.271750 0.062381 -0.244192 0.142263 0.549169 0.530052 -0.243573 0.538738 0.201735 0.310195 0.942937 -0.139695 0.030939 0.242372 -0.092220 0.191859 0.515212 -0.273591 -0.303403 0.071736 -0.013742 -0.296421 0.189886 0.269807 0.417091 0.497435 0.066820 -0.335105 0.077420 -0.459621 -0.236651 -0.131335 -0.065043 0.228068 0.412109 0.577865 0.530688 -0.162928 -0.239548 0.238106 0.484855 0.035368 -0.383379 0.013170 0.122677 -0.117258 -0.283675 0.197813 0.156524 0.337427 0.139439 -0.519923 0.210108 -0.372983 0.282816 0.246541 -0.218832 -0.048792 -0.437777 0.132728 -0.148957 0.030879 -0.538752 0.237365 0.355175 -0.578488 -0.026679 0.212701 0.013849 0.455350 -0.114451
a153063 0.294774 0.604231 -0.461905 -0.824258 0.800687 0.360258 -1.188742 -0.091929 0.448818 0.689416 -0.097993 -0.322281 0.174465 -0.490868 0.389438 -0.032954 -0.184398 -0.263283 0.808890 -0.229072 0.248036 -0.409862 -0.765405 0.327447 -0.507788 0.069726 0.195598 0.455249 0.783242 0.100852 -0.184960 -0.392744 0.615212 -0.383103 -0.177097 -0.208177 -0.002128 -0.063387 -0.041891 0.539306 0.418288 -0.118941 -0.004198 0.724105 0.235650 0.064398 0.176257 -0.762966 0.155126 -0.073932 -0.312242 0.148716 -0.098000 0.050294 -0.366564 0.059843 -0.448458 0.263929 0.033758 -0.607953 -0.073264 -0.021035 0.133203 0.025550 -0.736270 0.140052 -0.317464 0.034218 -0.226259 0.281920 0.247834 -0.453271 0.215588 0.407745 0.681584 -0.173766 -0.238444 -0.198224 -0.603766 0.392662 0.233321 0.078980 0.540140 0.212901 0.242231 -0.517991 -0.403890 -0.077578 -0.211171 0.242129 -0.308112 0.195535 0.797292 0.655880 -0.290134 -0.065538 0.382871 -0.395489 -0.330225 -0.238567 0.227796 0.052941 -0.161492 0.204683 0.211578 0.225515 0.249555 -0.229055 -0.164834 0.395395 0.035611 0.232005 -0.378133 0.094558 0.051559 0.098503 0.249501 -0.141719 0.403714 0.040676 0.367478 0.350700 -0.379757 0.375785 0.327940 -0.743586 0.074328 -0.301070
a6184 -0.302464 0.126609 -0.378876 0.251867 0.481554 0.118292 0.005606 0.676315 0.098020 -0.016389 -0.192234 0.532190 0.279786 -0.067826 -0.008410 -0.035548 0.422664 0.075827 0.052403 -0.100063 0.097447 -0.065742 -0.439370 0.422942 -0.062780 0.068090 0.113751 0.002704 0.108590 0.267402 0.414451 0.224891 -0.091572 0.303197 0.160373 -0.235865 0.089120 -0.005703 0.104523 -0.240632 0.222232 0.194482 0.339482 0.036362 0.223882 -0.023781 -0.291156 -0.302095 0.189187 -0.095083 -0.088381 -0.303561 0.095684 0.489150 -0.273696 0.286003 0.201804 0.269864 -0.303303 -0.044914 -0.245711 -0.066720 0.255373 0.480119 0.300001 0.467751 0.018781 -0.053362 0.340924 0.227778 0.336347 0.027850 -0.039108 0.121797 0.554204 -0.141448 -0.345303 -0.253062 -0.329453 0.011890 -0.463033 -0.127836 -0.048081 0.186356 -0.146696 0.036487 -0.735108 -0.006852 -0.454521 0.037960 -0.357234 -0.244286 -0.143940 0.375418 0.097150 0.239006 -0.063054 0.079559 0.078544 -0.115813 -0.054691 0.306330 -0.302993 -0.255110 -0.147469 0.105521 -0.068692 0.210057 -0.089550 -0.019314 -0.038387 -0.287874 0.252231 -0.066075 0.039267 -0.335358 0.096311 0.244663 0.268382 0.143754 -0.066858 0.514314 -0.782745 -0.052863 0.076481 0.115483 0.455967 -0.368958
a6163 0.034545 0.371064 -0.995450 0.046229 0.132409 0.060553 -0.141922 0.359618 -0.183345 -0.016000 -0.019088 0.657778 0.268640 -0.360954 0.162093 0.199761 0.454894 0.223967 0.109246 -0.036739 0.636182 -0.048746 -0.175540 0.349512 -0.432656 -0.253958 0.141036 0.004005 0.273422 -0.034959 0.181633 -0.215121 0.212895 0.072217 0.381534 -0.175901 0.026607 0.219877 0.288381 -0.131843 0.438099 -0.068381 0.088949 0.214227 0.146464 -0.186726 -0.123508 -0.266105 0.039664 -0.078279 -0.320337 -0.019802 0.126264 0.136013 -0.200869 0.064922 0.031963 -0.166593 0.372195 -0.229483 0.079874 -0.063168 0.452271 0.207614 -0.159534 0.637983 0.121365 0.341656 0.056040 0.267676 -0.323106 0.314583 0.294101 -0.241019 -0.050271 -0.260610 -0.033736 -0.153188 -0.234149 0.307301 -0.510729 -0.067153 0.034303 0.109340 -0.500501 -0.101205 -0.771213 -0.204858 -0.215721 -0.613046 -0.055091 0.380541 -0.018282 0.020845 -0.383278 -0.044311 0.290352 -0.325241 0.709743 0.310759 -0.062809 0.204938 -0.349873 0.054299 -0.064551 -0.444765 0.306687 0.161241 -0.058301 0.210912 -0.350896 -0.161198 0.242708 -0.304758 0.133883 -0.099510 0.163055 -0.062321 0.469185 -0.141284 -0.118827 0.487059 -0.488991 0.410046 0.190678 -0.348220 0.443306 -0.432068
a108047 -0.672899 0.043222 -0.661301 0.287632 0.601075 0.116523 0.303584 -0.302711 0.356303 -0.081674 -0.597413 0.219305 0.126465 -0.157827 0.562221 0.301071 -0.046537 0.085504 0.542007 -0.314009 0.518025 -0.425624 -0.630305 0.526609 -0.049655 0.242885 -0.072546 0.352258 0.486793 0.284677 0.311936 -0.152905 0.258469 0.380585 0.033764 0.068607 0.608639 0.081721 -0.167488 0.178599 0.051109 -0.471760 0.045090 0.246931 -0.224928 -0.048433 0.005520 -0.278728 0.325158 -0.088535 -0.052674 0.214121 -0.214876 0.095537 -0.274332 -0.038582 -0.271620 -0.401992 -0.187119 0.034293 0.488801 0.222342 0.286195 -0.034379 -0.160852 0.240528 0.369865 0.459401 -0.219607 -0.432396 -0.013778 -0.164565 0.053643 0.344633 -0.491713 -0.558870 0.443717 0.344658 -0.563250 0.162711 0.086489 0.630501 0.335074 0.129363 -0.213847 0.203069 -0.446674 0.181378 0.066542 -0.038287 0.069430 0.272605 0.415890 0.711093 -0.304162 -0.057881 0.483765 0.539381 0.322885 -0.351557 -0.135322 0.041246 -0.054344 -0.397549 -0.137881 -0.184931 0.101191 0.120557 0.112392 0.391253 -0.471665 -0.027875 -0.205514 -0.098462 -0.073533 -0.219451 0.538376 0.199463 -0.010864 -0.393084 0.070785 0.485363 -0.344336 -0.369472 0.319894 -0.462559 0.376280 0.101566
a287787 -0.287313 0.003686 0.030169 0.390816 0.696971 0.243993 -0.030507 -0.166904 0.775565 0.353318 0.155679 0.432718 -0.004209 -0.226538 0.207574 0.022416 -0.022848 -0.018668 0.454370 -0.310371 0.586107 -0.716927 -0.009245 0.456718 -0.053986 0.119520 0.380362 0.358464 -0.080613 0.528183 0.306991 -0.366041 -0.100056 0.156306 -0.172199 -0.288402 -0.057514 0.313588 0.244193 0.254802 0.131524 -0.730221 0.211997 0.057447 -0.537892 0.483049 -0.240307 0.023975 -0.332530 -0.612269 -0.432867 0.125573 -0.666438 -0.100991 -0.631488 0.177705 -0.013911 -0.441835 -0.277209 0.254749 -0.048405 0.548990 0.042523 -0.069433 0.295357 0.013354 0.103152 0.452248 -0.026066 0.108837 0.216132 0.158432 -0.048315 0.176738 -0.069374 -0.299596 -0.048045 0.033890 -0.329539 -0.025717 0.020032 0.037970 0.184860 0.182626 -0.167860 -0.007067 -0.415978 0.207051 -0.342624 0.146095 0.061537 0.561369 0.289705 0.469733 -0.680016 -0.159996 -0.051040 0.266824 0.372179 -0.339072 0.041407 -0.424009 -0.163461 -0.405707 0.063492 -0.266337 0.234422 -0.079899 -0.026522 0.455810 -0.096247 -0.003203 0.035370 -0.336392 -0.007279 -0.079633 0.393671 -0.294200 -0.115061 -0.634819 0.022383 0.076219 -0.068302 -0.007620 0.321805 -0.405814 0.345518 0.039857
a46491 -0.168297 0.284607 0.210759 -0.132924 0.577425 -0.183755 0.159774 0.453451 0.227074 0.078100 -0.261242 0.232590 0.179942 -0.106877 0.000176 -0.109400 -0.099291 0.176492 0.219780 0.223816 0.401834 -0.249374 -0.692329 0.422345 -0.568640 0.514660 -0.079140 0.321278 0.654983 -0.190388 1.008333 0.319640 -0.056415 0.239111 -0.064769 -0.364292 0.249867 -0.573665 0.005076 0.141351 -0.140571 -0.453304 0.737175 0.430917 -0.000764 -0.179268 -0.100920 0.250542 -0.065887 -0.391246 0.094639 0.056476 0.172200 0.011392 -0.244279 0.253454 0.027057 0.192720 -0.263566 0.019938 0.123252 0.149680 -0.211991 0.144308 -0.515060 0.043454 -0.221311 0.109492 -0.213426 0.423354 -0.054790 0.180498 -0.144384 0.244905 0.232551 0.509717 -0.432571 0.203242 0.246731 0.148950 -0.005350 -0.508076 -0.224581 0.227516 -0.214774 0.201377 -0.696803 0.070704 -0.330963 -0.253514 0.048340 0.106435 -0.366303 0.323581 -0.532110 0.032396 -0.026834 0.366788 0.294769 -0.140458 -0.217805 -0.154080 0.044103 -0.180492 -0.331214 -0.166932 -0.158490 0.146550 0.751859 0.116341 0.104342 0.112866 -0.354653 -0.403220 0.054506 -0.749987 0.113148 -0.265471 0.028847 -0.453040 0.388991 1.214151 -0.329166 -0.282219 -0.041829 -0.286918 -0.158138 0.303932
a6209 0.092947 -0.172405 -0.416290 0.327275 0.012465 -0.020632 -0.219692 0.323300 0.207835 -0.291306 -0.240738 0.732523 -0.396799 -0.227023 0.421021 0.040643 0.208980 -0.393020 0.106995 0.092184 -0.286696 0.025909 0.008136 0.542131 -0.847900 -0.194783 0.346091 -0.425666 0.345450 0.514992 0.201748 -0.207188 -0.044463 0.003427 -0.053631 0.149686 -0.361546 0.227859 0.171737 0.212288 0.468353 -0.131239 0.354096 0.105422 -0.303582 -0.506131 -0.370555 0.042588 0.365371 -0.379412 -0.450363 -0.083607 -0.038673 0.560436 -0.035442 0.287294 -0.124692 0.210620 0.251468 -0.425948 0.385250 0.515827 -0.214536 0.525349 0.214720 0.048107 0.131237 0.042879 0.062322 0.506238 -0.032402 -0.041304 0.391643 -0.309533 0.176235 -0.337181 -0.272000 -0.460619 -0.374138 -0.106364 -0.692574 0.187783 -0.207720 0.077407 -0.249902 0.121597 -0.249938 -0.215358 -0.384060 -0.275352 0.038164 0.142567 -0.008276 0.009435 -0.539578 -0.224112 0.019868 0.355367 0.032077 -0.082005 -0.351678 -0.019133 -0.098299 -0.128504 -0.318123 0.255101 0.311964 0.113869 -0.169273 0.670905 -0.349300 -0.523353 -0.001306 -0.095100 0.043918 -0.256705 -0.089028 -0.518021 0.511901 -0.204264 -0.536257 0.168925 0.003846 0.291928 -0.081421 -0.205975 0.457955 -0.234805
a3233 -0.073205 -0.025604 -0.188855 -0.133854 0.608886 -0.136691 0.069337 0.174270 -0.165935 -0.005725 0.067082 0.324670 0.295211 -0.003728 0.514588 0.351214 -0.040490 -0.584382 0.260211 -0.085524 0.030632 0.357356 0.465311 0.367797 -0.645422 -0.509659 0.134742 0.247993 -0.033491 0.328713 0.569723 0.114076 -0.165331 -0.076564 -0.115174 0.496237 0.103953 -0.102217 0.186323 0.405812 0.154122 0.012551 0.085325 0.258985 0.191470 -0.524060 0.230775 0.182544 -0.013628 0.069621 0.303007 -0.059052 0.081055 0.101274 -0.952552 0.317833 -0.281826 0.717054 -0.184798 -0.404624 -0.483468 0.192177 -0.018522 -0.473937 -0.749354 0.051258 0.039677 0.197655 -0.167710 0.435959 -0.075465 -0.437749 0.464252 0.115259 0.364541 0.130482 -0.276906 0.033136 -0.078836 0.054415 0.117377 -0.608929 0.174554 0.258578 -0.070281 0.332764 -0.422626 -0.157467 -0.197870 0.210282 -0.016486 -0.225272 0.213499 0.365722 -0.825864 -0.070693 -0.330299 -0.151729 -0.199098 0.088471 -0.073599 0.313794 -0.057999 0.329641 -0.245612 -0.262343 -0.104052 0.252998 0.205488 0.237008 -0.405861 0.232731 -0.166211 -0.643533 0.145558 -0.225097 0.170994 0.091013 0.116807 -0.395323 0.128052 0.334043 -0.061198 -0.398247 0.014753 -0.550069 -0.148827 -0.289918
